1.078171730041504,1.6692533493041992,0.02447308599948883,0.007942788302898407,-0.21763825416564941,0.00365602970123291,-0.026427537202835083,-0.0018147379159927368,-0.0053675174713134766,-2.835113048553467,-0.6485055088996887,1.698854684829712,-0.8605085611343384,0.0002941340208053589,-0.03701514005661011,-0.09220337867736816,0.3796040415763855,-0.008224055171012878,0.9687017202377319,-1.1555664539337158,0.00003242306411266327,-2.6096596717834473,-1.628016710281372,0.024364709854125977,0.014686249196529388,0.14374998211860657,-1.230747938156128,-0.030261456966400146,-0.512433648109436,0.011063490062952042,0.4129781126976013,0.7936226725578308,-0.8683531284332275,0.06737002730369568,-1.3680155277252197,-1.5465980768203735,3.643608331680298,-1.8689603805541992,2.363098382949829,1.9708582162857056,0.06971240043640137,2.0412206649780273,-0.9162194132804871,-5.256864070892334,0.0049974918365478516,-0.18464866280555725,0.007045142352581024,-0.7656923532485962,-1.0411977767944336,2.0798017978668213,-0.2018638253211975,0.01685112714767456,-0.018027275800704956,-0.4995245337486267,0.01753997802734375,0.9893056750297546,-0.12332519888877869,4.265851974487305,0.8099300265312195,-1.5777390003204346,-0.20491845905780792,-1.544799566268921,0.7580878734588623,-1.0790531635284424,4.530697822570801,-0.08944183588027954,-0.08174282312393188,1.4331202507019043,-1.1623880863189697,-0.01613438129425049,-0.16577506065368652,1.928711175918579,-0.00409621000289917,1.045231819152832,0.0004975795745849609,-0.6576483249664307,-0.22904087603092194,-2.4502992630004883,-0.11769810318946838,0.01641394942998886,-0.2794153094291687,0.004285797476768494,1.0436444282531738,-1.2661904096603394,-1.604365348815918,0.008445680141448975,0.005212847143411636,0.02944183349609375,1.0304007530212402,-0.058145672082901,-1.355973243713379,0.1682071089744568,1.91413152217865,-3.0992720127105713,-0.2958815097808838,-0.11478488147258759,-1.4257146120071411,-0.5698694586753845,0.41050493717193604,-0.060272037982940674,-0.11198953539133072,-1.1084561347961426,0.00771215558052063,-0.9874059557914734,-0.1552746742963791,-1.2289096117019653,1.0035638809204102,-0.40340346097946167,1.1507186889648438,-1.3628129959106445,-0.27024346590042114,0.01037520170211792,-0.00883467122912407,1.1139874458312988,-1.7203129529953003,0.007932543754577637,0.49726879596710205,0.020879805088043213,0.002013459801673889,0.7512378692626953,-2.2815756797790527,-1.9076945781707764,-2.044356346130371,-0.0019304752349853516,0.08669298887252808,-3.917952060699463,0.8918144702911377,-0.002899646759033203,0.09463216364383698,1.2863340377807617,-1.004164218902588,-1.403739094734192,2.86602520942688,-0.004218101501464844,-8.052976608276367,0.015842854976654053,-0.598430335521698,-2.0277419090270996,-2.1957619190216064,-0.034792304039001465,0.0969228744506836,-1.5403320789337158,-0.6028439402580261,-2.0094237327575684,4.436701774597168,0.7436002492904663,0.7527313232421875,-0.23250508308410645,-0.23044562339782715,-0.12552666664123535,-1.5748958587646484,-0.008611410856246948,0.10011662542819977,-0.7996686697006226,-1.5025708675384521,7.000847816467285,-0.9353879690170288,0.001384735107421875,-0.1346546709537506,-1.8765501976013184,-0.26612740755081177,-0.016854137182235718,0.7482582926750183,-0.0007963180541992188,0.03602750226855278,-0.008644938468933105,0.3593762516975403,-0.00904807448387146,0.6228963136672974,-0.001233816146850586,-0.06629452109336853,-0.27561116218566895,0.06496948003768921,-1.011510968208313,0.9933759570121765,0.16193240880966187,0.7956768274307251,-2.0004875659942627,-1.710585594177246,-0.7576419115066528,-0.8602665662765503,-0.2523791491985321,-0.10450620949268341,0.05803936719894409,-1.3662184476852417,-0.5094065070152283,-1.0403413772583008,-0.007123291492462158,-0.09158095717430115,-1.1507571935653687,-0.020444437861442566,-0.07216036319732666,0.008066708222031593,1.277328372001648,-0.2818308174610138,0.007350793574005365,-2.6578075885772705,0.33151620626449585,-0.2385750710964203,-1.5800085067749023,0.7906749248504639,-0.16010433435440063,1.5346043109893799,1.7796120643615723,-0.10605603456497192,-0.15839079022407532,0.018572628498077393,-1.166466236114502,1.0540266036987305,2.410615921020508,0.12416821718215942,-0.13247299194335938,1.7652627229690552,0.030437283217906952,0.8215693831443787,0.007851660251617432,0.8859621286392212,-0.34760308265686035,-0.06335519254207611,0.015320301055908203,-0.020480841398239136,-1.0668970346450806,0.0013012588024139404,-0.35145846009254456,-0.3996084928512573,0.763306736946106,-0.19655585289001465,0.33208221197128296,-0.6588317155838013,-0.1509363055229187,0.24434766173362732,0.44128769636154175,-0.2264922857284546,0.9321845769882202,-1.7591729164123535,-0.2027447521686554,0.019535958766937256,0.365117609500885,0.22656023502349854,0.9001160860061646,-1.417728066444397,-0.07756602764129639,-0.004068445414304733,-1.7405849695205688,-0.6077386140823364,-1.80016028881073,0.005288809537887573,-0.6936548352241516,0.832257866859436,0.7927125096321106,0.006455063819885254,-1.1708014011383057,-0.7531639933586121,-0.09361286461353302,0.04883601889014244,-0.6032202839851379,0.009348582476377487,-1.361512303352356,-0.07839792966842651,-0.5268934369087219,-0.04141756892204285,1.1685047149658203,0.7143560647964478,-0.0881933867931366,0.0715663731098175,0.00887569785118103,-1.4427918195724487,0.6796830892562866,-1.6483533382415771,-0.14489516615867615,-0.009238570928573608,0.8606017231941223,-1.0500829219818115,-0.09631074965000153,1.9842907190322876,0.8225692510604858,1.6815426349639893,1.148247241973877,-1.5136518478393555,0.11394202709197998,1.368577480316162,2.9582455158233643,-1.1109074354171753,0.9771493077278137,-0.07166153192520142,-0.008008480072021484,-3.451730489730835,-0.037839919328689575,0.003162950277328491,0.005475267767906189,-1.0487819910049438,-0.9076666235923767,-1.381052017211914,1.0371726751327515,0.5327611565589905,-0.8957927227020264,-0.5474900007247925,-1.1709643602371216,3.955465316772461,0.0025447607040405273,-1.6253623962402344,-0.014136869460344315,-1.6228766441345215,0.04427468776702881,-1.5263316631317139,1.4549205303192139,-0.6215019822120667,-0.016341477632522583,0.15777719020843506,-2.341048240661621,-1.4266176223754883,-0.0003890395164489746,-0.1790616363286972,0.03338360786437988,0.9136024713516235,0.28737708926200867,-2.5000011920928955,-0.7865304350852966,-0.14348921179771423,-0.019312530755996704,0.42124322056770325,2.883044958114624,-1.7536280155181885,0.03479623794555664,-8.941449165344238,0.0030549168586730957,-0.03733266890048981,-0.6651347875595093,1.106123685836792,1.8270783424377441,-1.704447865486145,0.3220505714416504,-0.17037756741046906,0.7912659049034119,-3.1140382289886475,0.7565754652023315,1.3752323389053345,0.019220277667045593,0.16839006543159485,0.920283317565918,0.29331064224243164,0.01330024003982544,0.8383784294128418,-0.09558923542499542,-1.216359257698059,-0.06237858906388283,0.017351508140563965,-0.06201562285423279,-1.7044554948806763,-2.62888240814209,-0.042442437261343,0.020928382873535156,0.7036615610122681,-0.05960291624069214,0.017787426710128784,0.04577803611755371,-6.547421455383301,0.6983599662780762,-1.7487398386001587,-1.9575285911560059,-0.8028690814971924,0.02077120542526245,-0.09994640946388245,-0.025000154972076416,0.7247714400291443,-0.03911393880844116,-2.09382963180542,2.089003562927246,3.185272693634033,-0.26705771684646606,-1.9771333932876587,-0.020175457000732422,-0.22629325091838837,-2.1658127307891846,0.6725198030471802,0.2953112721443176,4.261091232299805,-0.0953993946313858,-1.2544305324554443,-0.12553614377975464,0.02557498961687088,-0.35278207063674927,1.0877004861831665,0.11641669273376465,2.1208415031433105,0.01833975315093994,-2.601470708847046,-0.532202422618866,3.513516902923584,0.006296142935752869,-0.053680069744586945,-0.7567470073699951,1.1576812267303467,-0.1355637162923813,-1.0485177040100098,-0.008740067481994629,0.016402721405029297,0.6010249257087708,0.016736924648284912,1.569840908050537,3.6186625957489014,-0.13287991285324097,-1.4113843441009521,2.5283591747283936,-0.2080237865447998,0.9276281595230103,-0.4839593470096588,0.022324247285723686,0.026589632034301758,-0.1444777250289917,-2.0767781734466553,-0.026370078325271606,-0.00968983769416809,-1.3438694477081299,-0.006766617298126221,-2.5360171794891357,-1.8077813386917114,-0.3221435546875,-0.431071400642395,0.7098766565322876,-0.001574695110321045,-0.6637330055236816,0.020413070917129517,0.05500072240829468,0.07548817992210388,2.979604482650757,-0.9189795255661011,0.2391802966594696,-0.1462646722793579,-0.17877750098705292,-0.06935308873653412,-0.07890626788139343,0.4502388834953308,1.218653678894043,-1.255614161491394,-0.05972082540392876,0.07860522717237473,0.6802436113357544,0.013040468096733093,0.2607138156890869,0.6769940257072449,-1.1849725246429443,-1.2739983797073364,0.00048448145389556885,0.015751291066408157,-0.055553168058395386,-0.5991864204406738,2.9113214015960693,-0.9852318167686462,-0.015089213848114014,0.1327953338623047,-0.08409872651100159,-7.7769856452941895,0.028134644031524658,-0.32509300112724304,0.511820375919342,-0.14396771788597107,1.3444492816925049,-0.12373476475477219,-1.445268988609314,0.001644909381866455,0.09668920189142227,0.027049899101257324,-0.126890629529953,-1.6313300132751465,-0.037434354424476624,0.2940402030944824,0.7207454442977905,1.219656229019165,0.001181386411190033,-0.022001098841428757,0.07723703980445862,-0.15052445232868195,-0.18215182423591614,-2.104010820388794,-0.04900677502155304,0.34558314085006714,-0.15892526507377625,-0.04764450341463089,-0.24805057048797607,0.12441563606262207,0.10437827557325363,-1.8545072078704834,-0.1774529665708542,0.042752161622047424,-0.024935021996498108,0.004061639308929443,-0.07821858674287796,-1.5799793004989624,2.5311832427978516,0.1398772895336151,-0.34300053119659424,-0.040205299854278564,-2.660588264465332,1.7179348468780518,-0.06269019842147827,-1.0496621131896973,2.955764055252075,-0.00530029833316803,-0.00425935722887516,-0.20856916904449463,0.04753848910331726,-0.019638627767562866,0.017438897863030434,-0.040249139070510864,0.10367384552955627,0.8011314272880554,1.4884841442108154,-0.2255142331123352,-1.347670078277588,1.0197782516479492,-0.002722695469856262,-1.009812831878662,-0.007785614579916,0.9123498201370239,-0.020655080676078796,-0.033297404646873474,0.7383661866188049,2.5009074211120605,-0.0654110312461853,0.002567470073699951,1.5311405658721924,0.023437704890966415,-0.0004457235336303711,0.32586532831192017,-0.004809349775314331,0.13412582874298096,-1.211254358291626