-0.6177563071250916,-0.5766422748565674,0.206633523106575,0.22744861245155334,-0.0622912235558033,0.1116887629032135,-0.11665181070566177,-0.24274194240570068,0.11903715878725052,0.07828594744205475,-0.11959481239318848,-0.18835994601249695,1.226137638092041,0.15100830793380737,1.6422109603881836,-0.29446080327033997,-0.09596628695726395,0.19221845269203186,-0.10147058218717575,0.23724272847175598,0.1117771714925766,-0.03667241334915161,0.08235996216535568,-0.19585873186588287,-0.44854632019996643,0.1483181118965149,0.29849672317504883,0.4699338674545288,-0.7210914492607117,0.12197612226009369,0.2075183242559433,-0.5554251670837402,-0.20076884329319,-0.22082141041755676,0.17824456095695496,-0.04919089376926422,-0.1435043066740036,0.14848557114601135,-0.07214342802762985,-0.24462264776229858,0.6366389393806458,-0.304481565952301,-0.18459036946296692,1.2684348821640015,-0.19889996945858002,0.4054272472858429,-0.08307605236768723,0.803026020526886,0.02070997841656208,-0.29654332995414734,-0.012270236387848854,0.21221746504306793,0.4266554117202759,-0.32873043417930603,0.3838835060596466,-0.43462979793548584,0.1661081314086914,-0.043459415435791016,-0.3464488685131073,0.01657971553504467,-0.6041673421859741,-0.001712222583591938,-1.33974289894104,-0.30049940943717957,0.04501446709036827,-0.07511936873197556,-0.02131197601556778,-0.2660571038722992,-0.691251277923584,-0.16448521614074707,-0.1951228827238083,-0.39170074462890625,-0.31766602396965027,0.9054062366485596,0.3643661439418793,-0.07011253386735916,-0.031139910221099854,0.0687560960650444,0.2547702193260193,0.33423376083374023,0.7009509205818176,0.2696138322353363,-0.3026503324508667,0.17435398697853088,-0.7746620178222656,-0.04031192511320114,-0.19267868995666504,-0.41855812072753906,0.22682687640190125,0.09841956198215485,0.5683097243309021,0.3645084500312805,-0.3514366149902344,0.5170669555664062,-0.3345363736152649,0.6010749340057373,-0.29089421033859253,0.18689081072807312,0.468708336353302,0.5532635450363159,0.36627164483070374,0.3587835729122162,0.7817542552947998,-0.11198806017637253,-0.3235905170440674,0.001894238288514316,-0.2636271119117737,-0.31756114959716797,-0.08681868016719818,-0.01256896834820509,0.5158470273017883,-0.08936018496751785,-0.3358672857284546,-0.22270631790161133,0.1069783866405487,-0.30226796865463257,0.43460190296173096,0.1193561777472496,-0.11754658818244934,0.15725089609622955,0.044778794050216675,-0.9365363717079163,0.3884502053260803,-0.24199989438056946,-0.2800948917865753,-0.788507878780365,-0.41063636541366577,0.13343501091003418,0.2901621460914612,-0.3086983263492584,0.0642072781920433,-0.4015624523162842,-0.1884283721446991,-1.1620004177093506,-5.815382480621338,-0.30676597356796265,0.26096296310424805,0.8883222341537476,0.31088125705718994,0.24181604385375977,-0.32392072677612305,0.5260545611381531,-1.3872867822647095,0.7586314082145691,-0.31546249985694885,0.6711751818656921,-0.09773793816566467,-0.28976842761039734,-0.434150755405426,0.7511163949966431,0.005935446359217167,0.5640870928764343,0.3040763735771179,-0.13903486728668213,-0.11536899954080582,0.32960963249206543,-0.860588788986206,0.34332117438316345,-0.18441320955753326,0.04666248708963394,-0.583726167678833,0.1629067361354828,-0.47490328550338745,0.05613946542143822,0.3466925024986267,0.021959327161312103,0.14249692857265472,0.2766120135784149,-0.8024205565452576,0.4888633191585541,0.1337164044380188,0.02973770536482334,-0.29442110657691956,0.048902321606874466,0.09565842151641846,-0.044549986720085144,-2.746227979660034,-1.009166955947876,-0.7232986092567444,0.28450635075569153,0.05385563150048256,-0.2615983486175537,0.21506041288375854,0.48833122849464417,0.09880097210407257,0.2547055184841156,1.006479263305664,-0.18376830220222473,0.13408908247947693,0.3859269618988037,-0.0066805630922317505,-0.5338006615638733,0.28648948669433594,-0.43282368779182434,0.32773473858833313,-0.11618855595588684,0.1121136024594307,0.11183678358793259,0.1343536525964737,0.15868979692459106,-0.589912474155426,-0.06785086542367935,-0.23825299739837646,0.5095347762107849,0.46827012300491333,-0.30344101786613464,-0.2785454988479614,0.27826300263404846,-0.4467965364456177,-0.02423432096838951,-0.08927831053733826,0.5757129192352295,-0.7761889100074768,0.22590501606464386,0.27386027574539185,-0.4482078552246094,0.6978600025177002,0.4576551616191864,0.19265292584896088,-0.6711257696151733,0.6112310886383057,-1.0897091627120972,0.2951468527317047,0.03739926591515541,0.1746574342250824,-1.2188379764556885,0.08440562337636948,0.09318365156650543,0.39112451672554016,0.1970617026090622,0.2844947576522827,-0.35588204860687256,1.601823329925537,-0.32512786984443665,0.01972515881061554,0.05545242503285408,-0.24433602392673492,-0.23190106451511383,0.13880237936973572,-0.37400880455970764,0.5319303274154663,0.06628299504518509,0.36529985070228577,-0.24882179498672485,0.40776848793029785,0.5459052920341492,0.4187212884426117,-0.1439029574394226,-0.46740663051605225,-0.4445074200630188,0.20672817528247833,-0.20656242966651917,1.3680154085159302,0.32323166728019714,-0.7201812267303467,0.18936368823051453,-0.1031859740614891,-0.044154927134513855,-0.3540400266647339,0.33569806814193726,-0.3928532898426056,-0.9777336120605469,0.9695623517036438,0.03191084414720535,0.005756656173616648,-0.2194424271583557,0.015322618186473846,0.5569783449172974,0.0259256474673748,0.03424389660358429,-0.03156418725848198,-0.39790400862693787,0.3584771454334259,-0.4084096848964691,-0.44751712679862976,-0.8411083221435547,0.012947261333465576,-0.0721878632903099,-0.7089860439300537,0.33700770139694214,-0.47328001260757446,0.07438004016876221,0.8632973432540894,-0.3104260265827179,0.18645629286766052,-0.16859404742717743,-0.2098328173160553,0.2027883529663086,-0.04730605334043503,0.2240782529115677,0.39196687936782837,-0.16197383403778076,0.04304998368024826,-0.41574910283088684,-0.4190930724143982,-0.03127603977918625,0.03512441739439964,-0.05734657868742943,-0.12391267716884613,-0.2890520989894867,-1.1927558183670044,0.2447727620601654,0.18897096812725067,0.11540530622005463,-0.27734994888305664,-0.2526216208934784,0.17275597155094147,-0.02521240897476673,0.24263311922550201,0.03221408650279045,0.17570263147354126,-0.2906228005886078,0.2256535291671753,-0.09949829429388046,-1.153988003730774,-0.2099308967590332,0.18903261423110962,1.1789170503616333,0.3678051829338074,-0.25603848695755005,0.5083330273628235,-0.5588721036911011,-0.11904095858335495,0.4726567566394806,5.391735076904297,0.26390281319618225,0.17749467492103577,0.0868673175573349,0.026614613831043243,-0.41576939821243286,-0.023477142676711082,0.25506532192230225,-0.22401942312717438,-0.3051716387271881,-0.044408783316612244,-1.035653829574585,-0.1580384522676468,-0.22651049494743347,0.29809898138046265,-0.3553520739078522,-0.3720838129520416,0.3311562240123749,-0.38266029953956604,0.39764583110809326,-0.2568127512931824,-0.1861090362071991,0.25852760672569275,0.3006688058376312,0.21604005992412567,-0.297489732503891,0.2806289494037628,-0.2676425278186798,-0.496408611536026,-0.1442478895187378,-0.37619084119796753,0.036335039883852005,-3.190915584564209,-0.45369020104408264,0.7079368829727173,-0.1496158242225647,0.29065844416618347,-0.09223771840333939,-0.020889870822429657,-0.5206831693649292,-0.3523368537425995,0.11155863851308823,-0.16516530513763428,-0.13211052119731903,-0.49055880308151245,0.624900221824646,0.2537452280521393,-0.5694804787635803,-0.08942984789609909,-0.009920732118189335,-0.6458648443222046,-7.875698566436768,0.1737460196018219,0.285234659910202,-0.4088325798511505,-0.1445176750421524,-0.016060806810855865,0.08284854143857956,0.003242103848606348,-0.507752537727356,-0.26844000816345215,0.14948953688144684,0.5225692391395569,0.061871208250522614,-0.34373781085014343,0.4432908892631531,0.2908063232898712,-0.5614444017410278,-0.3197164833545685,-0.22504690289497375,0.37608134746551514,0.14309285581111908,-0.20139439404010773,0.7664684653282166,-0.2568718194961548,-0.620801568031311,-0.14435975253582,1.8489677906036377,-0.0825355052947998,-0.21011041104793549,-0.10192486643791199,-0.38202109932899475,0.1725926250219345,0.11808763444423676,0.07894355803728104,0.08425585925579071,0.9331532716751099,-0.1508626788854599,-0.18209592998027802,0.820942759513855,-0.41431522369384766,-0.06356673687696457,-0.00845454353839159,0.11067017912864685,-0.7331593632698059,-0.20054292678833008,0.10035784542560577,0.9927948117256165,-0.15700088441371918,-0.12287688255310059,-0.039894405752420425,0.04249211400747299,0.3287732005119324,0.01028131041675806,-0.04698588326573372,0.036398857831954956,-0.3045879602432251,0.7410217523574829,-0.06110144406557083,-0.5104072690010071,-0.1460108757019043,-0.09938262403011322,0.304094523191452,-0.09772668778896332,0.24969805777072906,-0.3592054545879364,-0.121610626578331,-0.9452165365219116,0.09181813895702362,-0.3459679186344147,0.8226966261863708,-0.1967276781797409,0.8304349780082703,-0.037712212651968,-0.07188457995653152,-0.15746228396892548,-0.49724289774894714,0.1858506202697754,-0.05950034782290459,-0.24142290651798248,0.2708681523799896,-0.030576607212424278,0.3738696575164795,0.019216254353523254,0.33705851435661316,-0.37445369362831116,-0.21398872137069702,0.29370614886283875,0.41998398303985596,-0.2871382534503937,-0.05033959820866585,0.27472394704818726,0.4227442145347595,-0.5296826362609863,-0.44970300793647766,-0.23019064962863922,0.42879852652549744,-0.038168370723724365,0.23868463933467865,0.10390210896730423,0.17028222978115082,0.41086632013320923,0.24832339584827423,0.3215366005897522,-0.14255891740322113,-0.15706190466880798,0.21188753843307495,0.3968128561973572,0.0012115789577364922,1.1421518325805664,0.26780465245246887,-0.26576077938079834,0.3695243299007416,0.012178977020084858,-0.8058542013168335,-0.23504036664962769,0.43690821528434753,0.052389610558748245,-0.3186466097831726,-0.15269748866558075,-0.4587559401988983,-0.041082076728343964,-0.24066166579723358,-0.3362462818622589,-0.1732947677373886,2.4909348487854004,0.08737076073884964,0.2516467273235321,0.2670142352581024,-0.23352642357349396,-0.020934928208589554,0.040829647332429886,-0.2358619123697281,-0.3276510536670685,0.21461497247219086,0.5386596918106079,-0.3012966215610504,0.29959869384765625,0.46349459886550903,-0.23501168191432953,0.6139294505119324,-0.18168096244335175,0.3022623062133789,0.9403015971183777,-0.3879147469997406,-0.2700600326061249,-0.3856111466884613,-0.4864753782749176,0.11772849410772324,-0.30081427097320557,0.2822815775871277,-0.49197739362716675,-1.005083680152893,-0.3816887438297272,0,0,0,0,0,0,0,0,0,0,0,0,0,0,0,0,0,0,0,0,0,0,0,0,0,0,0,0,0,0,0,0,0,0,0,0,0,0,0,0,0,0,0,0,0,0,0,0,0,0,0,0,0,0,0,0,0,0,0,0,0,0,0,0,0,0,0,0,0,0,0,0,0,0,0,0,0,0,0,0,0,0,0,0,0,0,0,0,0,0,0,0,0,0,0,0,0,0,0,0,0,0,0,0,0,0,0,0,0,0,0,0,0,0,0,0,0,0,0,0,0,0,0,0,0,0,0,0,0,0,0,0,0,0,0,0,0,0,0,0,0,0,0,0,0,0,0,0,0,0,0,0,0,0,0,0,0,0,0,0,0,0,0,0,0,0,0,0,0,0,0,0,0,0,0,0,0,0,0,0,0,0,0,0,0,0,0,0,0,0,0,0,0,0,0,0,0,0,0,0,0,0,0,0,0,0,0,0,0,0,0,0,0,0,0,0,0,0,0,0,0,0,0,0,0,0,0,0,0,0,0,0,0,0,0,0,0,0,0,0,0,0,0,0,0,0,0,0,0,0,0,0,0,0,0,0,0,0,0,0,0,0,0,0,0,0,0,0,0,0,0,0,0,0,0,0,0,0,0,0,0,0,0,0,0,0,0,0,0,0,0,0,0,0,0,0,0,0,0,0,0,0,0,0,0,0,0,0,0,0,0,0,0,0,0,0,0,0,0,0,0,0,0,0,0,0,0,0,0,0,0,0,0,0,0,0,0,0,0,0,0,0,0,0,0,0,0,0,0,0,0,0,0,0,0,0,0,0,0,0,0,0,0,0,0,0,0,0,0,0,0,0,0,0,0,0,0,0,0,0,0,0,0,0,0,0,0,0,0,0,0,0,0,0,0,0,0,0,0,0,0,0,0,0,0,0,0,0,0,0,0,0,0,0,0,0,0,0,0,0,0,0,0,0,0,0,0,0,0,0,0,0,0,0,0,0,0,0,0,0,0,0,0,0,0,0,0,0,0,0,0,0,0,0,0,0,0,0,0,0,0,0,0,0,0,0,0,0,0,0,0,0,0,0,0,0,0,0,0,0,0,0,0,0,0,0,0,0,0,0,0,0,0,0,0,0,0,0,0,0,0,0,0,0,0,0,0,0,0,0,0,0,0,0,0,0,0,0,0,0,0,0,0,0,0,0,0,0,-0.43648093938827515,-0.28499600291252136,-0.20753854513168335,0.8618332147598267,-1.0376688241958618,0.6177647709846497,-0.126519113779068,-0.12366338819265366,-0.2813063859939575,0.14995591342449188,-1.295983910560608,-0.6566725373268127,0.8073690533638,-0.10404655337333679,0.32212668657302856,-0.7705296277999878,-0.7678549885749817,0.6277533769607544,-0.29885441064834595,-0.05815921351313591,0.2858544588088989,-1.2163622379302979,0.5410429835319519,-0.738312304019928,-0.6089889407157898,0.9667739272117615,0.3712318539619446,2.374762773513794,0.5202692151069641,0.6494830250740051,-0.29004648327827454,-0.2800598740577698,-0.3504461646080017,-0.7635271549224854,0.41300785541534424,0.2616156339645386,-0.6926645040512085,-0.28070947527885437,-0.7485778331756592,-0.19372640550136566,1.9365755319595337,-0.02680022083222866,-0.9012566208839417,1.3384438753128052,-0.06289704889059067,-0.8433312177658081,-0.8647568821907043,0.13277603685855865,0.30953899025917053,-0.6094075441360474,-0.7351230382919312,0.9844580888748169,-0.23074029386043549,-0.7400096654891968,0.7236319780349731,-0.36703750491142273,1.0408656597137451,-1.1278972625732422,-0.2907581627368927,0.2562118172645569,-0.1344934105873108,0.3494718372821808,-0.42927178740501404,0.5817405581474304,-0.6174178123474121,-0.38730308413505554,-0.5378661155700684,-0.18933093547821045,0.5774456858634949,-1.4000698328018188,-0.13244390487670898,-0.38707125186920166,-0.9391051530838013,0.11291025578975677,0.4716509282588959,-1.0894583463668823,0.9554864168167114,0.5740848183631897,-0.09242819249629974,0.5587665438652039,1.5564442873001099,0.019350599497556686,-0.521894633769989,0.38959038257598877,-0.5229307413101196,-0.32237163186073303,-0.12970773875713348,-0.38496825098991394,-0.8043879866600037,0.09456460177898407,0.20030663907527924,0.5799707770347595,-0.468249648809433,-0.4667952358722687,-0.2928174138069153,0.8143548369407654,-0.09962980449199677,-0.41699525713920593,2.21915602684021,-0.3640199899673462,-0.13785380125045776,0.9843317270278931,0.5329257845878601,-0.9198012948036194,-0.6297644972801208,0.3753427565097809,-0.34994810819625854,1.0038766860961914,0.06116868555545807,0.18617944419384003,-0.9268620014190674,-0.34259524941444397,-0.30123698711395264,0.21199344098567963,0.4998082220554352,-0.7183857560157776,-0.7758445143699646,-0.3986591100692749,-0.46663138270378113,-1.105798363685608,0.3543736934661865,-0.6882135272026062,0.4524456858634949,-0.7133601307868958,-0.3680911064147949,-0.00948375090956688,-0.37001436948776245,0.730236291885376,1.1450107097625732,-0.16801753640174866,0.1793036162853241,0.6635172963142395,-0.6840288043022156,0.860281229019165,1.418314814567566,-0.0856635719537735,-0.0795961394906044,-1.0777281522750854,0.6454801559448242,0.8823612332344055,-1.2586041688919067,-0.9708064794540405,0.19546407461166382,-0.07529864460229874,-0.8691417574882507,-0.18363210558891296,3.22184419631958,-1.3304672241210938,-0.19367125630378723,0.4286261200904846,0.22646464407444,0.5244577527046204,1.839537262916565,-0.5164929628372192,0.8850910663604736,-1.4573124647140503,-1.056959629058838,-0.0448719821870327,-0.8070055246353149,0.4704034924507141,-0.5784477591514587,-0.1192232295870781,-0.31468507647514343,-1.205535888671875,1.0746387243270874,0.4254029393196106,1.854889988899231,-0.11016108095645905,-0.4090519845485687,0.43093058466911316,-0.43169596791267395,-0.5025182962417603,-0.19857032597064972,0.4489591419696808,0.4784132242202759,-0.4585396349430084,-0.6714284420013428,0.3299809694290161,0.7459006905555725,1.513938546180725,-1.7305634021759033,-0.45301273465156555,0.6292237043380737,0.754226565361023,0.20589658617973328,-0.700068473815918,1.7375829219818115,-0.6522836089134216,0.12032198160886765,-1.1628401279449463,0.34570425748825073,0.7923758625984192,0.079025998711586,-0.5273711085319519,-0.6232320666313171,-0.816227376461029,0.3340510427951813,-0.9610742330551147,-0.7486403584480286,0.2627362310886383,-0.46963825821876526,-0.6947062015533447,-0.26824355125427246,-0.2771753668785095,-1.1676687002182007,-0.452879935503006,-0.7286840677261353,0.46705788373947144,-0.435698002576828,-0.7973516583442688,-0.6211032867431641,0.9279026985168457,-0.6944461464881897,-0.13105782866477966,-0.8458935022354126,-0.7463810443878174,-0.24651727080345154,0.7948337197303772,-0.004804335534572601,0.6530412435531616,0.3005775809288025,0.2687342166900635,0.9714382886886597,-0.8415077924728394,0.26638850569725037,-0.4136326014995575,-0.19881446659564972,0.2211243361234665,-0.808544933795929,0.321939080953598,-0.9211387634277344,0.2522125244140625,0.03195621818304062,-0.4677767753601074,0.2949218451976776,-0.4520718455314636,-0.15456488728523254,-0.16431985795497894,-0.09490855038166046,-0.3179033696651459,0.4518807530403137,0.6332417130470276,0.597294270992279,-0.12023325264453888,0.6919359564781189,0.509864866733551,0.9290689826011658,-0.3274155557155609,-0.2881126403808594,-0.5762930512428284,-0.08978774398565292,0.5388347506523132,1.367018699645996,-0.3150484263896942,0.20071525871753693,-1.0130871534347534,-0.7577095031738281,0.4543290138244629,0.12167772650718689,0.46594250202178955,-0.7150363922119141,-0.6085513830184937,-0.2490241676568985,-0.47761276364326477,-0.3290102481842041,-0.06840663403272629,1.0126025676727295,-1.3825215101242065,0.25903257727622986,0.45076730847358704,-0.5475359559059143,-0.3661477863788605,-0.004995744209736586,-0.4573661983013153,-0.3084932565689087,-0.5182120203971863,0.08835413306951523,-0.2364429533481598,0.13263489305973053,1.7029945850372314,-0.09193405508995056,-1.0226651430130005,0.9356136322021484,-0.5424774289131165,-0.5660915970802307,-0.16309158504009247,-1.246233582496643,-0.40714314579963684,0.17491185665130615,0.364646315574646,2.492100477218628,-0.13021999597549438,0.16720210015773773,-0.5472297668457031,-0.9019034504890442,1.0076781511306763,1.3733267784118652,-0.05110899358987808,-1.0688905715942383,-0.5046828389167786,0.5092564225196838,-0.09858785569667816,0.7518011331558228,-0.8060604929924011,0.4220537543296814,1.0240956544876099,-0.17202648520469666,0.29831019043922424,-0.4774649441242218,-0.9929565787315369,-1.5446654558181763,-0.9115074872970581,-0.7682567834854126,-0.1633296012878418,-0.49829259514808655,-0.5266544222831726,0.25227081775665283,1.2249435186386108,0.4798307716846466,-0.7437899112701416,-0.8555338382720947,-0.909892201423645,0.2059243768453598,0.2322670817375183,0.23592159152030945,-0.4094957113265991,-0.09462650865316391,0.24638259410858154,-1.4097545146942139,-0.6460201740264893,0.46773019433021545,3.4742116928100586,-0.1372470110654831,-0.18211086094379425,0.3337721824645996,-0.43795081973075867,0.31821948289871216,-0.7643374800682068,0.36991217732429504,-0.29770806431770325,-1.4159250259399414,-0.27228593826293945,-0.2114068567752838,0.9268351793289185,-1.067681908607483,-0.11670616269111633,1.3070579767227173,-0.1196172833442688,0.3767666220664978,0.25531721115112305,1.0226699113845825,-0.05212150514125824,-0.3426204323768616,-0.7836878299713135,-0.7744901776313782,-0.44380781054496765,0.8555527329444885,-0.31107309460639954,0.31752580404281616,0.4835994243621826,-0.5714927315711975,-0.12308415025472641,-0.6742821931838989,-0.969563901424408,-0.2714201509952545,-1.2398627996444702,0.155696302652359,-0.5888626575469971,-0.5982306599617004,0.49269217252731323,0.2601909637451172,-0.866726279258728,-0.8316406607627869,0.5287947058677673,-0.3329363167285919,-6.306354999542236,-0.8986502289772034,-0.21842654049396515,-0.0004473452572710812,-0.735679030418396,-0.10445361584424973,0.2847748100757599,2.028310775756836,-0.902656078338623,-0.656424880027771,-0.35416990518569946,-0.9952331781387329,0.02920370176434517,-0.5372014045715332,0.2822934687137604,0.9045224189758301,-1.0634076595306396,-0.28860166668891907,-0.7832003235816956,1.428100347518921,0.728675365447998,-0.9740325808525085,1.0382057428359985,-0.7528788447380066,0.11145005375146866,-0.5411050915718079,0.24829716980457306,-1.2077453136444092,-0.5865866541862488,-0.23795130848884583,-0.2296355962753296,-0.6788478493690491,-0.08983850479125977,-0.3379884660243988,-0.6157315373420715,0.10819314420223236,0.2719363868236542,-0.703850269317627,-0.5274068117141724,-0.6876433491706848,0.34900379180908203,0.5752872824668884,-0.723464846611023,0.032360952347517014,-0.11020830273628235,0.8871240019798279,0.8774030208587646,-0.6898224353790283,-0.052978094667196274,-0.6142848134040833,-0.7295708060264587,-1.0067601203918457,-0.03677655756473541,-0.5255809426307678,-0.7300047874450684,-0.23906555771827698,0.17634013295173645,-0.6550073623657227,-1.3829807043075562,0.4429778754711151,-0.18015305697917938,1.0255513191223145,-0.5147991180419922,0.6652617454528809,-0.3028070628643036,-0.8644987344741821,1.0553882122039795,-0.8008886575698853,-0.42823103070259094,0.0036333955358713865,-0.4580947458744049,1.3645563125610352,-0.7542948722839355,-0.3960759937763214,0.22535981237888336,-0.1621793657541275,-0.5722601413726807,0.25955474376678467,-0.6955302953720093,0.28538408875465393,-0.8312839269638062,0.807169497013092,-1.1328027248382568,-0.04089796543121338,0.9715035557746887,-0.6030539870262146,0.8543605804443359,1.8548167943954468,-0.7664772868156433,-0.9568780064582825,0.6514692902565002,1.6764633655548096,-0.5302407145500183,-0.3832010328769684,-0.742643415927887,-0.13171079754829407,-0.9767022132873535,0.8736870288848877,0.4905645251274109,0.3541397154331207,1.4213329553604126,-0.4045437276363373,-0.2515270411968231,-0.13680176436901093,-0.6544026136398315,1.2489871978759766,-0.4813162386417389,0.1385738104581833,-0.18162332475185394,-0.27056756615638733,-0.6654372811317444,0.7410314679145813,-0.16698245704174042,-0.09279031306505203,-0.7263333201408386,0.39003828167915344,-0.09460214525461197,0.9429890513420105,0.10314491391181946,-0.5245838761329651,0.049212075769901276,-0.3643180727958679,-0.6337977647781372,0.28503134846687317,2.768301486968994,-0.6830445528030396,0.9674608111381531,-0.13496698439121246,-0.659531831741333,-0.12475475668907166,-0.7149308919906616,-0.19057592749595642,-0.2955533564090729,-0.5163367986679077,-0.012745847925543785,-0.2378748506307602,0.611680805683136,0.37656107544898987,-0.6608109474182129,0.13983048498630524,-1.0430254936218262,-0.2040722370147705,-0.5725191831588745,-0.6067550778388977,-0.7273588180541992,-0.7680619955062866,-0.5404103398323059,-0.09765785187482834,0.6670511364936829,-1.9144413471221924,-0.6284401416778564,-0.5171030759811401,1.0297904014587402,0,0,0,0,0,0,0,0,0,0,0,0,0,0,0,0,0,0,0,0,0,0,0,0,0,0,0,0,0,0,0,0,0,0,0,0,0,0,0,0,0,0,0,0,0,0,0,0,0,0,0,0,0,0,0,0,0,0,0,0,0,0,0,0,0,0,0,0,0,0,0,0,0,0,0,0,0,0,0,0,0,0,0,0,0,0,0,0,0,0,0,0,0,0,0,0,0,0,0,0,0,0,0,0,0,0,0,0,0,0,0,0,0,0,0,0,0,0,0,0,0,0,0,0,0,0,0,0,0,0,0,0,0,0,0,0,0,0,0,0,0,0,0,0,0,0,0,0,0,0,0,0,0,0,0,0,0,0,0,0,0,0,0,0,0,0,0,0,0,0,0,0,0,0,0,0,0,0,0,0,0,0,0,0,0,0,0,0,0,0,0,0,0,0,0,0,0,0,0,0,0,0,0,0,0,0,0,0,0,0,0,0,0,0,0,0,0,0,0,0,0,0,0,0,0,0,0,0,0,0,0,0,0,0,0,0,0,0,0,0,0,0,0,0,0,0,0,0,0,0,0,0,0,0,0,0,0,0,0,0,0,0,0,0,0,0,0,0,0,0,0,0,0,0,0,0,0,0,0,0,0,0,0,0,0,0,0,0,0,0,0,0,0,0,0,0,0,0,0,0,0,0,0,0,0,0,0,0,0,0,0,0,0,0,0,0,0,0,0,0,0,0,0,0,0,0,0,0,0,0,0,0,0,0,0,0,0,0,0,0,0,0,0,0,0,0,0,0,0,0,0,0,0,0,0,0,0,0,0,0,0,0,0,0,0,0,0,0,0,0,0,0,0,0,0,0,0,0,0,0,0,0,0,0,0,0,0,0,0,0,0,0,0,0,0,0,0,0,0,0,0,0,0,0,0,0,0,0,0,0,0,0,0,0,0,0,0,0,0,0,0,0,0,0,0,0,0,0,0,0,0,0,0,0,0,0,0,0,0,0,0,0,0,0,0,0,0,0,0,0,0,0,0,0,0,0,0,0,0,0,0,0,0,0,0,0,0,0,0,0,0,0,0,0,0,0,0,0,0,0,0,0,0,0,0,0,0,0,0,0,0,0,0,0,0,0,0,0,0,0,0,0,0,0,0,0,0,0,0,0,0,0,0,0,0,0,0,0,0,0,0,0,0,0,0,0,0,0,-0.62554532289505,-0.5480155348777771,-0.08002836257219315,0.18821755051612854,0.1399046927690506,0.322829931974411,0.2339765429496765,0.24746869504451752,-0.3219352960586548,0.11841978132724762,0.7851740717887878,-0.11837054044008255,0.14050044119358063,-0.1285589039325714,-0.15402887761592865,-0.26739782094955444,0.36639922857284546,0.19380933046340942,0.15287603437900543,0.2656320035457611,0.14158646762371063,-0.056712470948696136,-0.025183802470564842,-0.10104481130838394,-0.06567858904600143,0.03896268457174301,0.20582617819309235,0.5108140707015991,0.21091045439243317,0.15964387357234955,0.14295439422130585,-0.5616887211799622,-0.6358290314674377,-0.1293138712644577,0.10492618381977081,-0.05083604156970978,-0.17030945420265198,-0.7360278367996216,-0.09140141308307648,-0.23024733364582062,0.4461255669593811,-0.27530765533447266,-0.4846210479736328,-3.275700330734253,0.8578593730926514,0.4200601577758789,-0.027131790295243263,0.11900827288627625,0.02257012575864792,-0.17684894800186157,0.25491946935653687,0.20956146717071533,0.045990996062755585,0.47943606972694397,0.31209513545036316,-0.5613093376159668,0.2067648023366928,-0.03896591439843178,-0.37366172671318054,0.011539819650352001,-0.493806928396225,0.029225876554846764,-0.8678418397903442,-0.2299807369709015,0.08589360862970352,0.29622185230255127,-0.19511450827121735,-0.26708248257637024,-1.1139456033706665,-0.2958579361438751,0.25297221541404724,-0.38308990001678467,-0.3829192519187927,0.8592745065689087,-0.1280359923839569,-0.053775642067193985,-0.12030822038650513,-0.011209066957235336,-0.2303047478199005,0.3097999393939972,0.7794874906539917,-0.2544270157814026,-0.38462114334106445,0.1308157742023468,-0.8213983774185181,-0.4199071526527405,0.2796019911766052,0.15891340374946594,0.38746538758277893,0.5519840717315674,-0.15365448594093323,0.013027655892074108,-0.30711525678634644,-0.19828739762306213,-0.3458583652973175,0.16279804706573486,-0.3354533016681671,-0.5327679514884949,0.33462414145469666,-0.02784649282693863,-0.059580862522125244,-0.3826823830604553,-0.024957748129963875,0.5458192229270935,0.12894609570503235,0.041436903178691864,-0.26609519124031067,-0.138385608792305,-0.039015136659145355,-0.015141619369387627,0.09913860261440277,0.267532080411911,0.20136350393295288,0.6511456370353699,0.12049257010221481,-0.4393710196018219,0.2733640968799591,-0.2430010586977005,-0.003496460383757949,0.6000766754150391,0.047160904854536057,1.246909499168396,0.443855881690979,-0.3829614222049713,0.10157104581594467,1.2786865234375,-0.43516969680786133,0.19837301969528198,0.3378380835056305,-0.32536688446998596,0.029366664588451385,-0.8319958448410034,-0.2920271158218384,0.9265065789222717,3.402923583984375,0.2936331331729889,-0.26635971665382385,-0.1368132382631302,0.2579178214073181,0.1639639437198639,-0.37065020203590393,-0.055316340178251266,0.09674964100122452,-0.8902636766433716,-0.30386877059936523,0.6732533574104309,-0.07337543368339539,-0.36713117361068726,0.15932035446166992,0.11534904688596725,0.09462129324674606,-0.0009764303686097264,0.2273523509502411,-0.1253649890422821,0.054225340485572815,0.44565150141716003,0.262430340051651,-0.1386689990758896,-0.14154264330863953,0.03885563462972641,0.21797028183937073,-0.2824304699897766,-0.5146752595901489,0.016949806362390518,0.3201206624507904,0.5454694628715515,0.1678639054298401,-0.24697911739349365,-0.6181157231330872,-0.08682182431221008,-0.18730367720127106,-0.30755284428596497,0.2767232060432434,-0.09336927533149719,-0.02859230898320675,0.4116632640361786,-4.266008377075195,0.1115858256816864,0.13312886655330658,0.800317108631134,-0.04994877055287361,-0.29258134961128235,0.24073724448680878,0.041962385177612305,0.059974800795316696,0.09714438766241074,0.823628842830658,-0.07919169962406158,0.8005654215812683,0.4498167634010315,0.4053754508495331,-0.22523905336856842,-0.3580382168292999,-0.38124606013298035,-0.8910627961158752,-0.12125535309314728,-0.07447487115859985,0.11832641810178757,-0.4927769899368286,0.14754822850227356,-1.1276484727859497,-0.14317230880260468,-0.22692552208900452,-0.12767620384693146,0.4662734866142273,-0.25989171862602234,-0.35678020119667053,0.15638752281665802,-0.49132239818573,-0.05140162631869316,-0.6498780846595764,0.47133269906044006,-0.7733193039894104,-0.23222553730010986,0.3499920070171356,-0.18000051379203796,0.6833357810974121,0.43271058797836304,-0.11421354115009308,0.1954924315214157,0.06723455339670181,0.22951586544513702,0.2720308005809784,0.06113038957118988,0.1550028920173645,-0.883062481880188,-0.1298012137413025,0.08603447675704956,0.4107046127319336,0.06780433654785156,0.31980520486831665,-0.30332517623901367,0.37737807631492615,-0.2862645983695984,0.0360853336751461,-0.20920398831367493,0.3102715015411377,0.23467670381069183,-0.11484632641077042,-0.33404043316841125,0.17372173070907593,0.38454827666282654,0.31530770659446716,-0.05220893770456314,-0.007834338583052158,0.3648452162742615,0.28034332394599915,0.102992944419384,-0.3531738519668579,-0.23337283730506897,-0.14410516619682312,-0.08238483965396881,0.6035050749778748,0.09070221334695816,0.7993624210357666,0.22577233612537384,-0.12036069482564926,-0.04488091915845871,-0.20480148494243622,1.2738972902297974,0.02189451828598976,-0.8997287750244141,0.9929121136665344,0.13998304307460785,0.1794549822807312,0.18795783817768097,-0.04295548051595688,0.18169529736042023,0.07443586736917496,0.37276557087898254,-0.1010003462433815,-0.29342877864837646,-0.1775800585746765,0.08571860939264297,-0.429976224899292,-0.7950999736785889,-0.6766039729118347,-0.08748901635408401,0.7170311212539673,0.3795729875564575,-0.5174866318702698,0.11114203929901123,0.7689892649650574,-0.2904268503189087,-0.24952828884124756,0.28220266103744507,-0.9092872142791748,-0.23911038041114807,-0.06573877483606339,0.2619258761405945,0.3256072700023651,-0.2034195214509964,0.04480205103754997,-0.41377758979797363,-0.25777503848075867,0.28373923897743225,0.03506622090935707,-0.5584800243377686,-0.10415130108594894,-0.24309784173965454,0.5534088015556335,-0.18819087743759155,-0.742307186126709,-0.48200514912605286,0.5540373921394348,-0.4200635850429535,-1.2545982599258423,0.45891863107681274,0.1420224905014038,-0.006254017818719149,0.18664345145225525,-0.2912307679653168,-0.3547395169734955,0.21986161172389984,-0.44881319999694824,-0.2508297562599182,0.2102033495903015,1.0676945447921753,0.059749919921159744,-0.12276298552751541,0.10465751588344574,-0.35020095109939575,-0.14063529670238495,-0.10350098460912704,-6.15669059753418,-0.4086412191390991,-0.17640095949172974,0.03260499984025955,-0.09790331870317459,-0.5259111523628235,0.13833393156528473,-0.027844782918691635,0.23229630291461945,-0.27365148067474365,-0.31889140605926514,-1.13990318775177,-0.16574479639530182,-0.16307970881462097,0.1258045732975006,-0.3570520579814911,-0.42327311635017395,-0.19103866815567017,-0.3546425998210907,0.34884849190711975,0.1437787562608719,0.3063790500164032,0.26151296496391296,-0.12470807135105133,0.24152974784374237,-0.27235791087150574,0.24931883811950684,0.4666849970817566,-0.4874326288700104,-0.5578551888465881,-0.2941149175167084,0.23026429116725922,1.8085333108901978,-0.4381268620491028,-0.20437605679035187,-0.07889453321695328,-0.1844206303358078,-0.1854793131351471,0.2828733026981354,-0.2891145348548889,-0.2634265124797821,0.25947320461273193,-0.04296014457941055,-0.061413638293743134,-0.42965224385261536,0.09179975092411041,0.1868668794631958,0.03084162063896656,0.5300844311714172,-0.011949286796152592,-0.5457946062088013,-5.755496978759766,0.045676808804273605,-0.0411451980471611,-0.5753756761550903,-0.24211572110652924,0.18184861540794373,0.18816658854484558,-0.10684654861688614,-0.3134000599384308,-0.21831892430782318,-0.25826385617256165,-0.20069651305675507,0.36682507395744324,-0.34699538350105286,-0.08660798519849777,0.22879494726657867,-0.011338538490235806,-0.21299131214618683,-0.2570986747741699,0.4093184173107147,0.2689815163612366,-0.31969892978668213,0.7281826138496399,-0.43859753012657166,-0.036016374826431274,-0.23711982369422913,0.22579535841941833,0.3558885157108307,-0.1701880395412445,0.2627243101596832,-0.4407925307750702,-0.17489410936832428,0.0272756889462471,-0.25663384795188904,-0.45210641622543335,-0.3645504117012024,0.4432065188884735,-0.1487465351819992,-0.6254063248634338,-0.09116490185260773,-0.5169594287872314,0.16060589253902435,-0.22724419832229614,-0.5976350903511047,-0.2883923351764679,0.43265464901924133,0.08713690936565399,-0.4322145879268646,0.19168664515018463,-0.019172919914126396,0.1760946661233902,-0.17287278175354004,0.011812226846814156,-0.21095000207424164,0.16485494375228882,0.24817083775997162,0.12883949279785156,-0.08187954872846603,-0.6597173810005188,0.052392564713954926,0.34753191471099854,0.27913835644721985,-0.18377375602722168,0.19922132790088654,0.12815029919147491,-0.22658757865428925,-0.35565224289894104,0.35061678290367126,0.028136152774095535,0.7287464141845703,0.0925518274307251,0.7796967029571533,0.025676053017377853,-0.6280851364135742,0.467446893453598,-0.5919119119644165,-0.03518286719918251,0.05666523426771164,-0.2556961476802826,1.2941468954086304,-0.08719101548194885,0.3068920075893402,-0.04199345037341118,-0.30181965231895447,-0.4818377196788788,-0.19058164954185486,0.2424842119216919,0.4436846077442169,-0.15178225934505463,-0.15763498842716217,0.2768922448158264,0.5565677881240845,-0.9486149549484253,-0.5871912837028503,-0.19418805837631226,-0.33222177624702454,-0.05197855457663536,0.5711983442306519,0.7375442981719971,0.16829203069210052,0.429789274930954,0.01100173406302929,-0.21039174497127533,0.2271590530872345,0.16663682460784912,0.27296823263168335,0.04236920550465584,0.05687310919165611,0.035403814166784286,-0.09186259657144547,-0.22118264436721802,0.31789469718933105,0.14845731854438782,0.10823578387498856,-0.14703145623207092,-0.22881722450256348,-0.013253232464194298,1.4675984382629395,-0.024053988978266716,-0.479581356048584,0.719592809677124,-0.23521988093852997,-0.28892195224761963,0.34562310576438904,2.211940288543701,-0.4287339746952057,0.22684629261493683,-0.15066072344779968,-0.21080422401428223,0.39057791233062744,0.052712053060531616,-0.16355997323989868,-0.3291720151901245,-0.3166239857673645,-0.5880391001701355,-0.43175485730171204,0.16880466043949127,0.1758812516927719,-0.20170947909355164,0.5087969303131104,-0.14436963200569153,-0.35335302352905273,1.045005202293396,-0.2350246161222458,0.034581538289785385,0.032320357859134674,-0.37601396441459656,0.011987656354904175,0.292358934879303,0.37792304158210754,-0.026213811710476875,-0.09551671892404556,-0.3205471336841583,0,0,0,0,0,0,0,0,0,0,0,0,0,0,0,0,0,0,0,0,0,0,0,0,0,0,0,0,0,0,0,0,0,0,0,0,0,0,0,0,0,0,0,0,0,0,0,0,0,0,0,0,0,0,0,0,0,0,0,0,0,0,0,0,0,0,0,0,0,0,0,0,0,0,0,0,0,0,0,0,0,0,0,0,0,0,0,0,0,0,0,0,0,0,0,0,0,0,0,0,0,0,0,0,0,0,0,0,0,0,0,0,0,0,0,0,0,0,0,0,0,0,0,0,0,0,0,0,0,0,0,0,0,0,0,0,0,0,0,0,0,0,0,0,0,0,0,0,0,0,0,0,0,0,0,0,0,0,0,0,0,0,0,0,0,0,0,0,0,0,0,0,0,0,0,0,0,0,0,0,0,0,0,0,0,0,0,0,0,0,0,0,0,0,0,0,0,0,0,0,0,0,0,0,0,0,0,0,0,0,0,0,0,0,0,0,0,0,0,0,0,0,0,0,0,0,0,0,0,0,0,0,0,0,0,0,0,0,0,0,0,0,0,0,0,0,0,0,0,0,0,0,0,0,0,0,0,0,0,0,0,0,0,0,0,0,0,0,0,0,0,0,0,0,0,0,0,0,0,0,0,0,0,0,0,0,0,0,0,0,0,0,0,0,0,0,0,0,0,0,0,0,0,0,0,0,0,0,0,0,0,0,0,0,0,0,0,0,0,0,0,0,0,0,0,0,0,0,0,0,0,0,0,0,0,0,0,0,0,0,0,0,0,0,0,0,0,0,0,0,0,0,0,0,0,0,0,0,0,0,0,0,0,0,0,0,0,0,0,0,0,0,0,0,0,0,0,0,0,0,0,0,0,0,0,0,0,0,0,0,0,0,0,0,0,0,0,0,0,0,0,0,0,0,0,0,0,0,0,0,0,0,0,0,0,0,0,0,0,0,0,0,0,0,0,0,0,0,0,0,0,0,0,0,0,0,0,0,0,0,0,0,0,0,0,0,0,0,0,0,0,0,0,0,0,0,0,0,0,0,0,0,0,0,0,0,0,0,0,0,0,0,0,0,0,0,0,0,0,0,0,0,0,0,0,0,0,0,0,0,0,0,0,0,0,0,0,0,0,0,0,0,0,0,0,0,0,0,0,0,0,0,0,0,0,0,0,0,0,0,0,0,0,0,0,0,0,0,0,0,0,0,0,0,0,0,0,0,0,0,0,0,0,0,0,0,0,0,0,0,0,0,0,0,0,0,0,0,0,0,0,0,0,0,0,0,0,0,0,0,0,0,0,0,0,0,0,0,0,0,0,0,0,0,0,0,0,0,0,0,0,0,0,0,0,0,0,0,0,0,0,0,0,0,0,0,0,0,0,0,0,0,0,0,0,0,0,0,0,0,0,0,0,0,0,0,0,0,0,0,0,0,0,0,0,0,0,0,0,0,0,0,0,0,0,0,0,0,0,0,0,0,0,0,0,0,0,0,0,0,0,0,0,0,0,0,0,0,0,0,0,0,0,0,0,0,0,0,0,0,0,0,0,0,0,0,0,0,0,0,0,0,0,0,0,0,0,0,0,0,0,0,0,0,0,0,0,0,0,0,0,0,0,0,0,0,0,0,0,0,0,0,0,0,0,0,0,0,0,0,0,0,0,0,0,0,0,0,0,0,0,0,0,0,0,0,0,0,0,0,0,0,0,0,0,0,0,0,0,0,0,0,0,0,0,0,0,0,0,0,0,0,0,0,0,0,0,0,0,0,0,0,0,0,0,0,0,0,0,0,0,0,0,0,0,0,0,0,0,0,0,0,0,0,0,0,0,0,0,0,0,0,0,0,0,0,0,0,0,0,0,0,0,0,0,0,0,0,0,0,0,0,0,0,0,0,0,0,0,0,0,0,0,0,0,0,0,0,0,0,0,0,0,0,0,0,0,0,0,0,0,0,0,0,0,0,0,0,0,0,0,0,0,0,0,0,0,0,0,0,0,0,0,0,0,0,0,0,0,0,0,0,0,0,0,0,0,0,0,0,0,0,0,0,0,0,0,0,0,0,0,0,0,0,0,0,0,0,0,0,0,0,0,0,0,0,0,0,0,0,0,0,0,0,0,0,0,0,0,0,0,0,0,0,0,0,0,0,0,0,0,0,0,0,0,0,0,0,0,0,0,0,0,0,0,0,0,0,0,0,0,0,0,0,0,0,0,0,0,0,0,0,0,0,0,0,0,0,0,0,0,0,0,0,0,0,0,0,0,0,0,0,0,0,0,0,0,0,0,0,0,0,0,0,0,0,0,0,0,0,0,0,0,0,0,0,0,0,0,0,0,0,0,0,0,0,0,0,0,0,0,0,0,0,0,0,0,0,0,0,0,0,0,0,0,0,0,0,0,0,0,0,0,0,0,0,0,0,0,0,0,0,0,0,0,0,0,0,0,0,0,0,0,0,0,0,0,0,0,0,0,0,0,0,0,0,0,0,0,0,0,0,0,0,0,0,0,0,0,0,0,0,0,0,0,0,0,0,0,0,0,0,0,0,0,0,0,0,0,0,0,0,0,0,0,0,0,0,0,0,0,0,0,0,0,0,0,0,0,0,0,0,0,0,0,0,0,0,0,0,0,0,0,0,0,0,0,0,0,0,0,0,0,0,0,0,0,0,0,0,0,0,0,0,0,0,0,0,0,0,0,0,0,0,0,0,0,0,0,0,0,0,0,0,0,0,0,0,0,0,0,0,0,0,0,0,0,0,0,0,0,0,0,0,0,0,0,0,0,0,0,0,0,0,0,0,0,0,0,0,0,0,0,0,0,0,0,0,0,0,0,0,0,0,0,0,0,0,0,0,0,0,0,0,0,0,0,0,0,0,0,0,0,0,0,0,0,0,0,0,0,0,0,0,0,0,0,0,0,0,0,0,0,0,0,0,0,0,0,0,0,0,0,0,0,0,0,0,0,0,0,0,0,0,0,0,0,0,0,0,0,0,0,0,0,0,0,0,0,0,0,0,0,0,0,0,0,0,0,0,0,0,0,0,0,0,0,0,0,0,0,0,0,0,0,0,0,0,0,0,0,0,0,0,0,0,0,0,0,0,0,0,0,0,0,0,0,0,0,0,0,0,0,0,0,0,0,0,0,0,0,0,0,0,0,0,0,0,0,0,0,0,0,0,0,0,0,0,0,0,0,0,0,0,0,0,0,0,0,0,0,0,0,0,0,0,0,0,0,0,0,0,0,0,0,0,0,0,0,0,0,0,0,0,0,0,0,0,0,0,0,0,0,0,0,0,0,0,0,0,0,0,0,0,0,0,0,0,0,0,0,0,0,0,0,0,0,0,0,0,0,0,0,0,0,0,0,0,0,0,0,0,0,0,0,0,0,0,0,0,0,0,0,0,0,0,0,0,0,0,0,0,0,0,0,0,0,0,0,0,0,0,0,0,0,0,0,0,0,0,0,0,0,0,0,0,0,0,0,0,0,0,0,0,0,0,0,0,0,0,0,0,0,0,0,0,0,0,0,0,0,0,0,0,0,0,0,0,0,0,0,0,0,0,0,0,0,0,0,0,0,0,0,0,0,0,0,0,0,0,0,0,0,0,0,0,0,0,0,0,0,0,0,0,0,0,0,0,0,0,0,0,0,0,0,0,0,0,0,0,0,0,0,0,0,0,0,0,0,0,0,0,0,0,0,0,0,0,0,0,0,0,0,0,0,0,0,0,0,0,0,0,0,0,0,0,0,0,0,0,0,0,0,0,0,0,0,0,0,0,0,0,0,0,0,0,0,0,0,0,0,0,0,0,0,0,0,0,0,0,0,0,0,0,0,0,0,0,0,0,0,0,0,0,0,0,0,0,0,0,0,0,0,0,0,0,0,0,0,0,0,0,0,0,0,0,0,0,0,0,0,0,0,0,0,0,0,0,0,0,0,0,0,0,0,0,0,0,0,0,0,0,0,0,0,0,0,0,0,0,0,0,0,0,0,0,0,0,0,0,0,0,0,0,0,0,0,0,0,0,0,0,0,0,0,0,0,0,0,0,0,0,0,0,0,0,0,0,0,0,0,0,0,0,0,0,0,0,0,0,0,0,0,0,0,0,0,0,0,0,0,0,0,0,0,0,0,0,0,0,0,0,0,0,0,0,0,0,0,0,0,0,0,0,0,0,0,0,0,0,0,0,0,0,0,0,0,0,0,0,0,0,0,0,0,0,0,0,0,0,0,0,0,0,0,0,0,0,0,0,0,0,0,0,0,0,0,0,0,0,0,0,0,0,0,0,0,0,0,0,0,0,0,0,0,0,0,0,0,0,0,0,0,0,0,0,0,0,0,0,0,0,0,0,0,0,0,0,0,0,0,0,0,0,0,0,0,0,0,0,0,0,0,0,0,0,0,0,0,0,0,0,0,0,0,0,0,0,0,0,0,0,0,0,0,0,0,0,0,0,0,0,0,0,0,0,0,0,0,0,0,0,0,0,0,0,0,0,0,0,0,0,0,0,0,0,0,0,0,0,0,0,0,0,0,0,0,0,0,0,0,0,0,0,0,0,0,0,0,0,0,0,0,0,0,0,0,0,0,0,0,0,0,0,0,0,0,0,0,0,0,0,0,0,0,0,0,0,0,0,0,0,0,0,0,0,0,0,0,0,0,0,0,0,0,0,0,0,0,0,0,0,0,0,0,0,0,0,0,0,0,0,0,0,0,0,0,0,0,0,0,0,0,0,0,0,0,0,0,0,0,0,0,0,0,0,0,0,0,0,0,0,0,0,0,0,0,0,0,0,0,0,0,0,0,0,0,0,0,0,0,0,0,0,0,0,0,0,0,0,0,0,0,0,0,0,0,0,0,0,0,0,0,0,0,0,0,0,0,0,0,0,0,0,0,0,0,0,0,0,0,0,0,0,0,0,0,0,0,0,0,0,0,0,0,0,0,0,0,0,0,0,0,0,0,0,0,0,0,0,0,0,0,0,0,0,0,0,0,0,0,0,0,0,0,0,0,0,0,0,0,0,0,0,0,0,0,0,0,0,0,0,0,0,0,0,0,0,0,0,0,0,0,0,0,0,0,0,0,0,0,0,0,0,0,0,0,0,0,0,0,0,0,0,0,0,0,0,0,0,0,0,0,0,0,0,0,0,0,0,0,0,0,0,0,0,0,0,0,0,0,0,0,0,0,0,0,0,0,0,0,0,0,0,0,0,0,0,0,0,0,0,0,0,0,0,0,0,0,0,0,0,0,0,0,0,0,0,0,0,0,0,0,0,0,0,0,0,0,0,0,0,0,0,0,0,0,0,0,0,0,0,0,0,0,0,0,0,0,0,0,0,0,0,0,0,0,0,0,0,0,0,0,0,0,0,0,0,0,0,0,0,0,0,0,0,0,0,0,0,0,0,0,0,0,0,0,0,0,0,0,0,0,0,0,0,0,0,0,0,0,0,0,0,0,0,0,0,0,0,0,0,0,0,0,0,0,0,0,0,0,0,0,0,0,0,0,0,0,0,0,0,0,0,0,0,0,0,0,0,0,0,0,0,0,0,0,0,0,0,0,0,0,0,0,0,0,0,0,0,0,0,0,0,0,0,0,0,0,0,0,0,0,0,0,0,0,0,0,0,0,0,0,0,0,0,0,0,0,0,0,0,0,0,0,0,0,0,0,0,0,0,0,0,0,0,0,0,0,0,0,0,0,0,0,0,0,0,0,0,0,0,0,0,0,0,0,0,0,0,0,0,0,0,0,0,0,0,0,0,0,0,0,0,0,0,0,0,0,0,0,0,0,0,0,0,0,0,0,0,0,0,0,0,0,0,0,0,0,0,0,0,0,0,0,0,0,0,0,0,0,0,0,0,0,0,0,0,0,0,0,0,0,0,0,0,0,0,0,0,0,0,0,0,0,0,0,0,0,0,0,0,0,0,0,0,0,0,0,0,0,0,0,0,0,0,0,0,0,0,-0.3610803782939911,-0.38034504652023315,0.9962309002876282,-0.10256148874759674,-0.9962971806526184,-0.3405153453350067,2.3689160346984863,-0.5502594709396362,0.7335397005081177,0.16326694190502167,-0.14508028328418732,-0.4906615912914276,1.7126590013504028,0.7641386389732361,0.9491767287254333,-0.06608334183692932,-0.24501414597034454,-0.14525605738162994,3.0461082458496094,0.39638426899909973,0.284164160490036,-0.22861723601818085,0.34744423627853394,-0.7346903681755066,-0.359902560710907,-0.11772389709949493,0.3423204720020294,-0.6021122336387634,-1.8383573293685913,-0.019601713865995407,-0.5060540437698364,-0.2928345501422882,-0.7290955781936646,-0.19099155068397522,-0.00009838596452027559,0.27340978384017944,-0.5269304513931274,-0.1501893550157547,-0.7398439645767212,-0.13696399331092834,-0.7272217869758606,-0.15731006860733032,-0.19230322539806366,0.026780277490615845,-0.41152411699295044,1.8581441640853882,-0.2873977720737457,0.40919578075408936,0.4266786575317383,-0.5722953081130981,-0.8400928378105164,-0.37669941782951355,1.4344481229782104,-0.6590151190757751,-0.15329065918922424,-0.36589309573173523,0.024072784930467606,-0.7495527863502502,-0.2867280840873718,0.21667243540287018,0.32513564825057983,0.3271539509296417,-0.3900671899318695,-0.5043666362762451,-0.7880297303199768,-0.09834705293178558,-0.5049601793289185,-0.2048874795436859,0.3816840350627899,-0.7086842656135559,-0.6543603539466858,-0.46914562582969666,-1.0867302417755127,0.016133446246385574,0.5522834658622742,0.10962463170289993,-0.016169508919119835,0.026711301878094673,1.0524342060089111,-0.10228752344846725,-1.026587963104248,0.5693289637565613,-0.5028808116912842,0.30458134412765503,0.8141430020332336,0.37719640135765076,-0.9046584963798523,-0.9350751042366028,-0.6344693899154663,-0.6984542012214661,1.449339747428894,0.1663094311952591,-0.5746718645095825,0.7124304175376892,-0.5036607384681702,-0.31540805101394653,-0.07881049811840057,-0.27326709032058716,-0.5805072784423828,1.4559969902038574,0.983339786529541,0.4680817425251007,0.24438057839870453,-0.5547220706939697,-0.623586893081665,0.42484891414642334,-0.4561576843261719,0.7488434314727783,-0.17289362847805023,0.1278548538684845,2.818387508392334,-0.6158695220947266,-0.25865593552589417,-0.7381772398948669,0.46236512064933777,-0.07334405183792114,1.594433307647705,0.8074647188186646,-0.41564103960990906,-0.6304783821105957,0.19840942323207855,0.17560097575187683,0.5118106603622437,0.17140474915504456,-0.6470980048179626,-0.5901568531990051,-0.5283113121986389,-0.3382062017917633,-0.34343618154525757,0.010083255358040333,0.308807373046875,-0.8155234456062317,-0.6077685952186584,-0.5727285742759705,1.2678189277648926,-0.7580569982528687,0.8414157032966614,1.3930184841156006,0.4093968868255615,-0.1155971810221672,-0.6465476155281067,1.4295152425765991,-0.0455564521253109,-0.29251834750175476,-0.8255165815353394,-0.08016148954629898,-0.1930815726518631,-0.2922849953174591,-0.6199842095375061,0.29839327931404114,0.4586600065231323,0.39779233932495117,-0.47587651014328003,0.22697050869464874,0.7304609417915344,-1.2637429237365723,-1.1237324476242065,0.8627837300300598,-0.0465824231505394,0.08469218015670776,-0.24814501404762268,0.7904455065727234,-0.362614244222641,-1.0446051359176636,-0.19084855914115906,-0.611494243144989,-0.4196542203426361,0.9599325060844421,-0.5343279838562012,0.5059750080108643,0.6895162463188171,0.4692816138267517,-0.7398105263710022,0.5578334331512451,0.3275637626647949,3.771305561065674,-0.7283872961997986,-0.10828147828578949,-0.32774850726127625,-0.5659568309783936,-0.057631298899650574,-0.12110581248998642,-0.06603319942951202,0.08702275156974792,0.19068549573421478,-1.3705401420593262,-1.692460298538208,-0.4271470606327057,-0.6039652228355408,0.6980153918266296,-0.5424599647521973,-1.3135076761245728,0.2995040714740753,-0.49030131101608276,0.6767403483390808,-0.029068637639284134,0.2897934913635254,-0.9683094620704651,0.37292590737342834,0.32878339290618896,-0.38760894536972046,-0.4401416778564453,-0.25845444202423096,-1.0822868347167969,-0.14305680990219116,-0.08565852046012878,-0.27243441343307495,0.4541415870189667,-0.5212062001228333,-0.774774968624115,0.18167421221733093,-1.2871184349060059,-0.4087625741958618,0.7167673110961914,-0.036940984427928925,-0.8712426424026489,-0.04550106078386307,0.6313908100128174,1.1530909538269043,-1.0227382183074951,0.2581893503665924,1.183908462524414,-0.34015214443206787,-0.43608415126800537,0.3124144375324249,-0.40350261330604553,2.0364091396331787,0.37837788462638855,2.853612184524536,0.5465755462646484,0.6720232367515564,-0.6713752150535583,0.6328232288360596,-0.37565866112709045,0.3408028483390808,0.9898770451545715,-0.8702850341796875,-1.3233792781829834,1.164902687072754,-0.33978936076164246,0.9196763038635254,-0.3573358356952667,0.03382863476872444,-0.7290121912956238,-0.9824200868606567,0.40970727801322937,-0.1719321459531784,-0.5329091548919678,-0.3303224742412567,-0.3734072148799896,0.8270251154899597,0.5661115646362305,1.8953866958618164,1.8016042709350586,-0.04878230765461922,0.02161438576877117,-0.05496976897120476,0.2813713550567627,-0.013603715226054192,-0.7666860818862915,-0.6750933527946472,-0.5294255614280701,-0.14894931018352509,-0.6978662610054016,-0.669611930847168,-0.8345548510551453,0.2880547046661377,0.370166540145874,0.24748927354812622,-0.4214972257614136,-0.1674647033214569,-0.34179022908210754,-0.7567884922027588,-0.7255200147628784,-0.06122390925884247,-0.47395986318588257,1.5585739612579346,-0.5893732309341431,2.0092029571533203,-0.3892298638820648,-0.05548494681715965,-0.7873446941375732,0.8709437847137451,-0.45540502667427063,1.0053126811981201,-0.6781850457191467,1.1079474687576294,0.986011803150177,0.8945707082748413,0.009167645126581192,-0.14356741309165955,-1.0901737213134766,0.1598067581653595,-0.2808621823787689,-0.6923076510429382,0.004193627275526524,-0.04161776229739189,-1.3750675916671753,-0.8372542858123779,-0.2372685968875885,0.5998961925506592,0.791803240776062,-0.347188264131546,0.35036924481391907,1.0641825199127197,-1.9361146688461304,-0.22649361193180084,-0.5064130425453186,-0.8892598152160645,-0.017756959423422813,-0.6397080421447754,-0.6672986149787903,0.5907965898513794,-0.9179851412773132,-0.4123232066631317,-0.03737011179327965,0.04508594423532486,0.7901331186294556,0.5456479787826538,-0.6226423978805542,1.4275487661361694,-0.5370956063270569,0.14685983955860138,0.5162159204483032,-0.5324392914772034,0.9776764512062073,0.9434159398078918,0.3573601543903351,0.5904212594032288,-0.5071591138839722,-0.8125268220901489,-0.5566469430923462,-0.88609379529953,-0.1863422691822052,0.37814176082611084,-0.466802179813385,-1.5605547428131104,-0.16754834353923798,0.36758875846862793,-0.2926959991455078,-0.9082918763160706,0.835152804851532,-0.2359505295753479,-0.11182770133018494,0.1111043319106102,-0.805222749710083,-0.27478963136672974,1.175899624824524,0.4757496416568756,0.2790977954864502,-0.1447264701128006,-0.7476495504379272,-0.3771635591983795,0.5172392129898071,-0.09356822073459625,-0.5365793704986572,0.4091552495956421,-0.3994225263595581,-1.304802656173706,0.5482492446899414,1.1323832273483276,2.1452078819274902,-0.7471955418586731,-1.062663197517395,-0.22378559410572052,-0.38163456320762634,-0.5638890862464905,-0.5718154907226562,-0.632646918296814,0.6074475049972534,0.11642967909574509,-0.7001829147338867,-0.8178306221961975,0.4646289646625519,-0.4762078523635864,-4.560917854309082,-1.0810593366622925,1.2060106992721558,-0.07123801857233047,-0.8570944666862488,-0.7139962911605835,0.2734655439853668,0.0069035994820296764,-0.5711003541946411,-0.5835384726524353,1.127173900604248,0.07533256709575653,-0.556400716304779,-0.628848135471344,0.41784605383872986,-0.2042480856180191,-0.12273380905389786,-0.25718507170677185,-0.004225046373903751,-0.6271042823791504,-0.31369662284851074,-0.7398518919944763,1.3230563402175903,0.12381354719400406,-1.2363005876541138,-0.5292854309082031,0.017710426822304726,-1.072196364402771,-0.35970649123191833,-0.6491364240646362,-0.31040748953819275,0.3968852758407593,1.353024959564209,0.9920192360877991,0.9543749690055847,-0.23595374822616577,-0.6296029090881348,-0.2043754756450653,0.08440331369638443,-0.6822287440299988,-1.2305495738983154,0.628412127494812,0.6731648445129395,0.46181192994117737,-0.18715617060661316,-0.4997057020664215,1.1367286443710327,0.19939911365509033,-0.7571229338645935,-0.2812917232513428,-0.6924687027931213,0.5249039530754089,1.0257712602615356,-0.5710927844047546,-0.5666280388832092,-0.7944129705429077,0.46872013807296753,-0.5409660339355469,-0.846185028553009,0.36486905813217163,-0.9155865907669067,-0.1285824477672577,-0.591434121131897,-0.09172805398702621,2.3040719032287598,-1.1678431034088135,-0.32295119762420654,-1.2207845449447632,-0.6321876645088196,0.2550300657749176,0.4183199405670166,-0.2185465395450592,-0.6196242570877075,0.14034199714660645,-0.7140354514122009,-0.583916187286377,0.5999880433082581,0.21700772643089294,-0.7968630790710449,-0.6158552765846252,0.22352641820907593,-0.19638589024543762,0.1516914963722229,-1.1574087142944336,0.5776603817939758,-0.23488378524780273,-0.202288419008255,-0.7701473236083984,-0.4197131395339966,0.09420829266309738,-0.119595006108284,-0.9048240184783936,-0.7203242182731628,-0.3469553589820862,-0.12504300475120544,0.7249091267585754,-0.28922030329704285,-0.33411166071891785,-0.6926195025444031,0.21303501725196838,-1.2293628454208374,1.6392382383346558,0.9708797335624695,-0.921015739440918,-0.767646312713623,-0.6390028595924377,0.5469354391098022,0.24711987376213074,0.013841784559190273,1.018747091293335,-0.07493922859430313,0.2798941135406494,-0.8041253089904785,-0.1962837427854538,-0.6407531499862671,-1.1955498456954956,-1.307352066040039,-0.6631875038146973,-0.8684403896331787,-0.46550312638282776,-0.7131843566894531,0.23622189462184906,-0.8066803216934204,-0.5151602625846863,1.860037922859192,-1.0060428380966187,-0.13629481196403503,1.2651445865631104,0.05847868323326111,-0.4842776954174042,-0.4848089814186096,-0.2156926691532135,-0.2730315327644348,0.5078311562538147,1.0736172199249268,-0.468868613243103,0.30512261390686035,1.674383282661438,-0.1987517923116684,0.08103583008050919,-0.21428647637367249,0.8605376482009888,-0.026238491758704185,-0.5825600624084473,-0.8545847535133362,-0.8365353941917419,-0.3796220123767853,1.1958287954330444,0.9342742562294006,3.0994985103607178,-0.6544628739356995,2.243727445602417,-0.33389732241630554,0,0,0,0,0,0,0,0,0,0,0,0,0,0,0,0,0,0,0,0,0,0,0,0,0,0,0,0,0,0,0,0,0,0,0,0,0,0,0,0,0,0,0,0,0,0,0,0,0,0,0,0,0,0,0,0,0,0,0,0,0,0,0,0,0,0,0,0,0,0,0,0,0,0,0,0,0,0,0,0,0,0,0,0,0,0,0,0,0,0,0,0,0,0,0,0,0,0,0,0,0,0,0,0,0,0,0,0,0,0,0,0,0,0,0,0,0,0,0,0,0,0,0,0,0,0,0,0,0,0,0,0,0,0,0,0,0,0,0,0,0,0,0,0,0,0,0,0,0,0,0,0,0,0,0,0,0,0,0,0,0,0,0,0,0,0,0,0,0,0,0,0,0,0,0,0,0,0,0,0,0,0,0,0,0,0,0,0,0,0,0,0,0,0,0,0,0,0,0,0,0,0,0,0,0,0,0,0,0,0,0,0,0,0,0,0,0,0,0,0,0,0,0,0,0,0,0,0,0,0,0,0,0,0,0,0,0,0,0,0,0,0,0,0,0,0,0,0,0,0,0,0,0,0,0,0,0,0,0,0,0,0,0,0,0,0,0,0,0,0,0,0,0,0,0,0,0,0,0,0,0,0,0,0,0,0,0,0,0,0,0,0,0,0,0,0,0,0,0,0,0,0,0,0,0,0,0,0,0,0,0,0,0,0,0,0,0,0,0,0,0,0,0,0,0,0,0,0,0,0,0,0,0,0,0,0,0,0,0,0,0,0,0,0,0,0,0,0,0,0,0,0,0,0,0,0,0,0,0,0,0,0,0,0,0,0,0,0,0,0,0,0,0,0,0,0,0,0,0,0,0,0,0,0,0,0,0,0,0,0,0,0,0,0,0,0,0,0,0,0,0,0,0,0,0,0,0,0,0,0,0,0,0,0,0,0,0,0,0,0,0,0,0,0,0,0,0,0,0,0,0,0,0,0,0,0,0,0,0,0,0,0,0,0,0,0,0,0,0,0,0,0,0,0,0,0,0,0,0,0,0,0,0,0,0,0,0,0,0,0,0,0,0,0,0,0,0,0,0,0,0,0,0,0,0,0,0,0,0,0,0,0,0,0,0,0,0,0,0,0,0,0,0,0,0,0,0,0,0,0,0,0,0,0,0,0,0,0,0,0,0,0,0,0,0,0,0,0,-0.01824108697474003,0.13960351049900055,-0.14304181933403015,-0.25136053562164307,-0.8315828442573547,-0.11301838606595993,-1.6153382062911987,0.041222553700208664,-0.214580237865448,0.6596989631652832,-1.0042632818222046,-0.2831766605377197,-2.4255876541137695,-0.06808148324489594,-1.5744421482086182,1.8692213296890259,-2.5046465396881104,-0.18377502262592316,-2.859560489654541,2.7687504291534424,-1.6493959426879883,3.6494643688201904,1.0544513463974,3.102735996246338,0.10727711021900177,-0.11807242780923843,1.5176163911819458,-1.93117356300354,1.3775030374526978,0.3702952265739441,-1.8868658542633057,0.2704254388809204,3.359523057937622,-0.21129952371120453,1.0601333379745483,0.9255422949790955,-1.4456690549850464,2.036806106567383,-0.5680025219917297,1.3994351625442505,-1.4485604763031006,0.5223540663719177,1.3350275754928589,2.9602534770965576,-0.8819786906242371,-2.8358614444732666,-0.2967049479484558,-0.14263910055160522,1.428045630455017,-0.07488417625427246,-1.158738613128662,-0.40241122245788574,-0.9424256086349487,-1.1013383865356445,-0.3429839015007019,2.0447168350219727,0.01899752765893936,-1.4239295721054077,-0.04650742933154106,0.7911842465400696,1.5403354167938232,0.8357937932014465,0.05311791971325874,0.8280486464500427,-2.1676993370056152,-1.0132519006729126,2.0707108974456787,0.37855732440948486,1.3760908842086792,1.8301308155059814,-0.03992689400911331,-0.2523626983165741,1.8608194589614868,-4.200109004974365,-0.4571657180786133,1.7855355739593506,-1.8211418390274048,0.6114906072616577,-0.04221820458769798,-0.055506929755210876,-1.924369215965271,-0.5309076905250549,-0.08640523999929428,0.7514970302581787,0.5690882802009583,0.0009103938937187195,-0.08693257719278336,-0.6485549807548523,-0.8306289911270142,-0.43648040294647217,-0.5944715738296509,0.09576471894979477,-0.5755968689918518,0.9928762912750244,1.706663966178894,-0.2729225158691406,1.6640905141830444,1.7495520114898682,-1.4246560335159302,-1.2797331809997559,-0.284578412771225,-1.23740816116333,-0.400215744972229,0.586330235004425,-0.37169283628463745,0.6748331189155579,0.06986822932958603,-0.019052529707551003,0.2183016538619995,1.0836420059204102,-2.409101963043213,-0.5697940587997437,-0.5669941902160645,-0.5957196354866028,1.5215595960617065,-0.27928775548934937,-0.894176721572876,-0.3036082684993744,-0.3960934281349182,1.5708346366882324,0.9519762992858887,1.3857927322387695,-1.8776049613952637,-0.26168885827064514,-0.4006384313106537,1.4973875284194946,1.218672513961792,-0.24453777074813843,-0.5313647985458374,1.644605040550232,1.548444151878357,1.5528478622436523,-0.6592181324958801,-0.7393569946289062,4.453866481781006,-0.2695120871067047,-0.00044124218402430415,0.042329318821430206,0.2825798988342285,-0.17019593715667725,2.075134515762329,-1.0400207042694092,1.547174334526062,1.671911358833313,-0.9760312438011169,-1.97894287109375,-2.9036505222320557,2.839707374572754,0.13699999451637268,-0.5478838086128235,1.9062621593475342,-0.2972017824649811,-1.226906418800354,1.266520380973816,1.566192388534546,-3.4296958446502686,-1.561989188194275,-0.4460460841655731,0.30671077966690063,1.7047456502914429,-0.09772246330976486,-0.06184501573443413,0.04153114929795265,2.2946689128875732,-0.12724807858467102,-0.17325054109096527,-0.5622857809066772,-0.11762167513370514,-0.06914924085140228,-0.40023648738861084,-0.07461662590503693,-0.3934786915779114,-0.5885793566703796,0.635132372379303,0.09703539311885834,-2.998063087463379,-0.3404587209224701,1.5163452625274658,0.7126149535179138,-1.238279938697815,1.9275270700454712,-0.6873132586479187,0.05498826503753662,-0.2650665044784546,0.9907511472702026,1.746142029762268,-1.5829116106033325,-0.46152302622795105,-0.7255068421363831,0.816708505153656,-0.2695600390434265,0.8398679494857788,0.18359024822711945,-0.11660154908895493,-0.20354090631008148,0.06175384670495987,1.3765459060668945,-2.0354299545288086,-0.45728403329849243,0.22637876868247986,-0.13396130502223969,-1.199912667274475,1.5178064107894897,-3.6111345291137695,-0.0956803560256958,-0.025195857509970665,-0.3746284246444702,-0.8825845718383789,-0.2847447693347931,-0.5093347430229187,0.4188672602176666,-1.0805174112319946,-0.21090756356716156,-0.027819007635116577,-2.3542611598968506,0.32279878854751587,-2.6487925052642822,-5.412774085998535,-0.6503236293792725,0.7243093252182007,-0.13910706341266632,0.8240929245948792,-0.5377867817878723,-0.36990442872047424,0.9903123378753662,-0.07759223878383636,-0.9754009246826172,-1.50945246219635,-4.188755512237549,0.1806189864873886,-0.6765120029449463,1.6986415386199951,-1.404739499092102,-0.483480304479599,1.118599772453308,-0.4153077304363251,-0.35846811532974243,1.1369775533676147,-0.7974297404289246,-0.07980937510728836,-0.25140804052352905,-0.31756967306137085,-0.05522063001990318,-1.0143581628799438,0.328896164894104,1.4322654008865356,-0.32774972915649414,-1.4963096380233765,0.04706607013940811,-0.3355481028556824,-0.2962303161621094,2.207700729370117,11.180892944335938,-0.9690439701080322,-0.30036839842796326,0.04323713853955269,-0.02188863791525364,0.7904945015907288,1.763553500175476,-0.9501709938049316,-0.282760351896286,-0.19143928587436676,-2.9416465759277344,1.7413456439971924,-0.8892807960510254,0.025103827938437462,1.367011547088623,-0.8380262851715088,2.225270986557007,0.13954468071460724,-0.6293177008628845,-0.1787731796503067,-0.6565754413604736,-0.06543945521116257,1.9493521451950073,0.19907325506210327,-0.2158343642950058,1.7124203443527222,-0.41738489270210266,-1.1186954975128174,2.1907994747161865,-1.2629207372665405,-3.7338173389434814,-0.2797212600708008,-0.6297710537910461,-0.4400143027305603,2.584178924560547,-0.26705804467201233,-2.145597219467163,-1.7304391860961914,-2.710526466369629,3.0223042964935303,1.6145881414413452,-0.17381857335567474,-0.045790281146764755,0.11437050998210907,-0.6452251672744751,-1.1161179542541504,-1.3180981874465942,-0.25980156660079956,0.6623755693435669,-0.08042370527982712,0.7333494424819946,-0.6272872686386108,0.6742559671401978,1.166995644569397,1.5570513010025024,-0.47514545917510986,-2.247404098510742,3.2356605529785156,3.275944471359253,-0.3111305236816406,-0.9878960847854614,-0.08217675238847733,-0.2528514862060547,-0.009896814823150635,0.47807401418685913,1.376578688621521,0.1755233108997345,-0.123179130256176,-1.5671430826187134,1.3878438472747803,1.400534749031067,-0.1456671506166458,6.510164260864258,-0.2210349142551422,-0.1531398743391037,2.309418201446533,0.8128066062927246,-0.3399108946323395,1.0161757469177246,-2.959933280944824,-0.027126867324113846,0.15709510445594788,1.6626793146133423,-0.06364180892705917,1.2289812564849854,-0.06915558874607086,-0.35272008180618286,-0.1758127510547638,2.311692476272583,-0.32573917508125305,0.013459851033985615,-0.13590407371520996,2.212900161743164,-0.11536893993616104,-0.4045843482017517,-0.36860522627830505,0.6880147457122803,1.3366096019744873,-0.2126268595457077,-0.3355311453342438,0.3226429224014282,-0.45740342140197754,-0.02493729256093502,-1.2223514318466187,3.922304630279541,0.2776394784450531,0.8012703061103821,1.1170082092285156,-1.6063257455825806,-1.8837649822235107,-1.0134601593017578,0.5652807354927063,0.11041686683893204,-1.1418617963790894,1.452192783355713,-0.9043553471565247,-0.6369484066963196,-0.3903295695781708,0.2884725332260132,-0.14342720806598663,-1.520786166191101,0.9022859930992126,-0.14229364693164825,2.167012929916382,-1.199981927871704,-0.49896445870399475,2.337146520614624,2.233736038208008,-0.11407993733882904,1.198401689529419,-2.0391860008239746,2.3752784729003906,0.2161581963300705,-0.4300050139427185,1.644637942314148,0.1054232195019722,-0.7233396768569946,-0.03387818485498428,-0.13336965441703796,2.047206401824951,-0.004804221447557211,-0.12638914585113525,-1.7147613763809204,-0.25404244661331177,2.6000843048095703,-9.028549194335938,-0.09468063712120056,0.04672720283269882,-1.6487505435943604,-1.679540991783142,1.6512514352798462,-0.46445152163505554,-0.25824064016342163,-0.033796995878219604,-0.8134526014328003,-0.20256227254867554,-0.3387695848941803,-0.5551495552062988,0.7912706136703491,-0.1060992032289505,-0.15593279898166656,1.1127125024795532,-0.48076331615448,2.5568807125091553,1.5046693086624146,0.32774850726127625,1.4055713415145874,0.21458777785301208,-0.450032114982605,-1.2574907541275024,-0.20668834447860718,-0.10208238661289215,-0.6809898614883423,-1.2895303964614868,0.3628494143486023,-0.3479878902435303,-1.1209280490875244,-0.8682273030281067,-0.027892934158444405,-0.4098944664001465,-0.6444040536880493,1.8534759283065796,0.5644127130508423,-0.0792667344212532,-0.13680770993232727,2.052109718322754,-0.042428307235240936,-2.054732084274292,1.9374192953109741,0.5781463980674744,1.4382615089416504,0.01131727546453476,-2.5131702423095703,-1.334572196006775,-1.7621079683303833,-1.623978614807129,2.147864580154419,-0.45190417766571045,2.0641674995422363,-1.546179175376892,1.6723618507385254,2.402752637863159,-1.0534541606903076,0.9546122550964355,-0.14134584367275238,0.44365933537483215,-0.5272921323776245,0.5907719731330872,-0.39346176385879517,-0.14961738884449005,-1.2596112489700317,0.24324476718902588,1.2531179189682007,-0.030513474717736244,-3.321509599685669,-0.07621882855892181,0.1731158345937729,-0.11992421001195908,-0.08184096217155457,-0.11191102117300034,-0.41775691509246826,-0.4228353798389435,0.6461607217788696,-2.7076680660247803,-0.6792239546775818,-0.14931444823741913,-0.07776238769292831,-0.36615580320358276,-0.4478149116039276,-1.0556058883666992,1.1453118324279785,-0.30581051111221313,-0.34321412444114685,-0.1113026961684227,-0.4764849543571472,0.0011064572026953101,2.0959577560424805,-0.8254880905151367,0.6679069399833679,1.4874874353408813,-1.7338318824768066,1.3874374628067017,-0.0813930481672287,-0.604242742061615,1.5759068727493286,-0.2188844531774521,-0.06796780973672867,-17.102638244628906,2.4816439151763916,-0.08079324662685394,-0.5561094880104065,-0.06708697974681854,-0.65506511926651,-0.7774176001548767,-0.013712321408092976,0.42823636531829834,-0.45597705245018005,0.6708542108535767,0.18533121049404144,-0.5268504619598389,-1.7564483880996704,0.07024894654750824,-2.628343105316162,-0.23340363800525665,-0.11753875762224197,-3.3003814220428467,-0.5666385889053345,-0.359294593334198,-0.4946945905685425,0.008971440605819225,-0.18949317932128906,1.105674386024475,-2.990654468536377,-0.36651837825775146,-1.0982134342193604,0.777947723865509,0,0,0,0,0,0,0,0,0,0,0,0,0,0,0,0,0,0,0,0,0,0,0,0,0,0,0,0,0,0,0,0,0,0,0,0,0,0,0,0,0,0,0,0,0,0,0,0,0,0,0,0,0,0,0,0,0,0,0,0,0,0,0,0,0,0,0,0,0,0,0,0,0,0,0,0,0,0,0,0,0,0,0,0,0,0,0,0,0,0,0,0,0,0,0,0,0,0,0,0,0,0,0,0,0,0,0,0,0,0,0,0,0,0,0,0,0,0,0,0,0,0,0,0,0,0,0,0,0,0,0,0,0,0,0,0,0,0,0,0,0,0,0,0,0,0,0,0,0,0,0,0,0,0,0,0,0,0,0,0,0,0,0,0,0,0,0,0,0,0,0,0,0,0,0,0,0,0,0,0,0,0,0,0,0,0,0,0,0,0,0,0,0,0,0,0,0,0,0,0,0,0,0,0,0,0,0,0,0,0,0,0,0,0,0,0,0,0,0,0,0,0,0,0,0,0,0,0,0,0,0,0,0,0,0,0,0,0,0,0,0,0,0,0,0,0,0,0,0,0,0,0,0,0,0,0,0,0,0,0,0,0,0,0,0,0,0,0,0,0,0,0,0,0,0,0,0,0,0,0,0,0,0,0,0,0,0,0,0,0,0,0,0,0,0,0,0,0,0,0,0,0,0,0,0,0,0,0,0,0,0,0,0,0,0,0,0,0,0,0,0,0,0,0,0,0,0,0,0,0,0,0,0,0,0,0,0,0,0,0,0,0,0,0,0,0,0,0,0,0,0,0,0,0,0,0,0,0,0,0,0,0,0,0,0,0,0,0,0,0,0,0,0,0,0,0,0,0,0,0,0,0,0,0,0,0,0,0,0,0,0,0,0,0,0,0,0,0,0,0,0,0,0,0,0,0,0,0,0,0,0,0,0,0,0,0,0,0,0,0,0,0,0,0,0,0,0,0,0,0,0,0,0,0,0,0,0,0,0,0,0,0,0,0,0,0,0,0,0,0,0,0,0,0,0,0,0,0,0,0,0,0,0,0,0,0,0,0,0,0,0,0,0,0,0,0,0,0,0,0,0,0,0,0,0,0,0,0,0,0,0,0,0,0,0,0,0,0,0,0,0,0,0,0,0,0,0,0,0,0,0,0,0,0,0,0,0,0,0,0,0,0,0,0,0,0,0,0,-0.29430723190307617,-0.300979346036911,-0.8862786293029785,-0.05747281387448311,0.6414107084274292,-0.04737734794616699,-0.8642556071281433,0.5592142939567566,-0.6473400592803955,0.14166778326034546,1.06610107421875,-0.5343694090843201,-1.291534662246704,-0.7987850904464722,-0.83847975730896,-0.08484990149736404,2.533234119415283,-0.04531463608145714,-0.5565313696861267,0.26738178730010986,0.3153228759765625,-0.02749442495405674,0.3711758852005005,-1.1611524820327759,0.11546960473060608,-0.139693483710289,0.27994051575660706,-0.9255756139755249,-0.8763831853866577,0.01506822183728218,-0.5082188248634338,-0.3135159909725189,-1.845911979675293,-0.20677189528942108,0.07092408835887909,0.1840827614068985,-0.631964921951294,-0.0528106652200222,-0.8533693552017212,-0.13057634234428406,-0.3078872561454773,-0.1878720223903656,0.0029415085446089506,0.8306212425231934,0.17698946595191956,1.8770411014556885,-0.07978891581296921,-0.346391886472702,0.3508960008621216,-0.7042895555496216,1.781774640083313,-0.25282004475593567,-0.6123819351196289,0.42339035868644714,-0.2750726342201233,-0.5005813241004944,-0.08296392858028412,-0.902934193611145,-0.31885138154029846,0.20099587738513947,0.49981677532196045,0.30575311183929443,-0.41285622119903564,-0.569440484046936,-0.8152170777320862,1.1077768802642822,-0.36200666427612305,-0.24243101477622986,0.399698942899704,-0.34224486351013184,0.7792735695838928,-0.43175485730171204,-0.14876946806907654,0.298457533121109,-0.4759114980697632,0.0761072188615799,0.0006190408603288233,-0.22005967795848846,-0.9626262187957764,-0.09675285965204239,-1.0118476152420044,-0.08288680016994476,-0.4944298267364502,0.24791264533996582,0.8359439969062805,-0.5279862880706787,0.9613243341445923,1.2528326511383057,1.6621500253677368,0.8019109964370728,-0.6162849068641663,-0.1078927144408226,-0.45868006348609924,-0.5121654868125916,-0.3922678530216217,-0.2431151419878006,-0.06779590994119644,-0.30848029255867004,-0.4158645272254944,-0.8123338222503662,-0.6462222337722778,-1.7857019901275635,-0.7525113224983215,0.2654259502887726,0.4406280517578125,0.37624576687812805,-0.404096394777298,-0.7701988220214844,-0.14458946883678436,0.03967529907822609,-0.3121567368507385,1.1751333475112915,0.22199146449565887,-0.017241740599274635,0.3220430016517639,-0.49031615257263184,-0.6049855351448059,-0.6903396844863892,0.02800392545759678,-0.9043117165565491,0.20037072896957397,0.1856430172920227,0.5122194886207581,-0.6736606955528259,0.8442188501358032,-0.5449818968772888,-0.00888931192457676,-0.037349849939346313,-0.27721476554870605,-0.011571872979402542,0.30460068583488464,-0.698581337928772,-0.672999382019043,0.3529411256313324,-0.5288457870483398,0.8321311473846436,-0.3548718988895416,1.1571216583251953,0.3443755507469177,-0.12548434734344482,-0.7773410677909851,0.36417293548583984,-0.2146817296743393,-0.05508238449692726,-0.8463895320892334,0.00402798829600215,-0.900643527507782,-0.784503161907196,0.7136015295982361,-0.5997539758682251,0.31770381331443787,-0.5856100916862488,-0.48958757519721985,0.32559242844581604,0.5814638137817383,-1.172076940536499,1.1749705076217651,-0.7929576635360718,-0.03954561799764633,0.3202958106994629,0.6887760758399963,-0.8084908723831177,-0.35139429569244385,-0.5191701650619507,-0.14714132249355316,0.3312550187110901,-0.39937326312065125,-0.9113249778747559,-0.5783559083938599,-0.5533584952354431,-0.7981942892074585,-0.6023990511894226,1.1081238985061646,-1.0040653944015503,0.2583048343658447,-0.9608638286590576,-0.5329581499099731,-0.03343038260936737,-0.41001245379447937,0.10003572702407837,-0.386721134185791,-0.48219338059425354,-0.17129728198051453,-0.48552799224853516,0.12166459858417511,0.475547730922699,-0.27094200253486633,-0.10156439989805222,0.6924463510513306,-2.006777048110962,0.5960770845413208,-1.0554280281066895,-0.4631151258945465,-0.4636768698692322,-0.9698342680931091,-0.07149767875671387,0.39094027876853943,-0.7847419381141663,-0.9157575964927673,0.3204227685928345,-0.29717662930488586,-0.49992629885673523,-0.28333672881126404,-0.03307824954390526,-0.10697633773088455,-0.07395078986883163,-0.4309675097465515,0.5435336828231812,-0.5367963314056396,-0.7824878692626953,-0.15565899014472961,-1.251144289970398,-0.3930567800998688,-0.6460567712783813,2.3075063228607178,0.4479515850543976,0.04296289384365082,0.7219359278678894,-0.6036893129348755,0.20756253600120544,-0.6072921752929688,1.0662466287612915,-0.26816341280937195,-0.36688119173049927,0.3211017847061157,-0.3526049554347992,-1.018090009689331,0.3518276810646057,2.557643175125122,-0.5945215821266174,0.6973147988319397,-0.6732136011123657,-0.5980595350265503,-0.3649738132953644,0.17001134157180786,-0.7539550065994263,0.968032717704773,-0.2602827847003937,-0.7753198146820068,-0.2819608449935913,-0.11232706159353256,0.2506261169910431,-0.05479007586836815,-1.1121174097061157,0.689476728439331,0.43386462330818176,-0.36748626828193665,0.9484717845916748,-0.25565963983535767,-0.5164903402328491,-0.6877997517585754,0.6763948202133179,2.237361431121826,-1.0690419673919678,-0.21000246703624725,0.07036872208118439,-0.05164599418640137,0.17783178389072418,-1.2490648031234741,0.5229739546775818,0.5396151542663574,-0.4982158839702606,-0.1340271681547165,-1.3007978200912476,1.3465163707733154,0.733467698097229,0.23284150660037994,0.07752246409654617,0.19424889981746674,0.36480697989463806,-0.4599943459033966,-0.3069564700126648,1.5747016668319702,0.6381096839904785,-0.14650994539260864,-0.43751877546310425,-1.13833487033844,-0.6607451438903809,-1.1473274230957031,-0.15854214131832123,-0.1292828470468521,-0.6865279078483582,0.9823969602584839,-0.4428861141204834,-0.9256890416145325,0.9218251705169678,1.3663631677627563,-0.7830087542533875,0.6996735334396362,-0.01933920942246914,-0.1231076717376709,-1.469111442565918,0.1787501722574234,-0.11143636703491211,0.339681476354599,0.04687575250864029,-0.03214072808623314,-0.23741061985492706,-0.834434449672699,-0.03952363505959511,0.23752914369106293,-0.7410131692886353,-0.5141642093658447,-0.7419648170471191,-1.2425652742385864,-1.980594277381897,-0.10703415423631668,0.6354363560676575,3.033403158187866,-0.19651195406913757,-0.8819196820259094,-0.05413128808140755,-0.7462565302848816,1.0603392124176025,-0.5019305944442749,-0.16969506442546844,0.041137661784887314,0.15181268751621246,-0.6593650579452515,-0.02051708847284317,0.3700055778026581,-0.689170241355896,0.15531456470489502,-0.7590424418449402,0.01466482225805521,-0.8544920682907104,-0.8891201019287109,0.24894015491008759,0.7607420682907104,-0.5673362016677856,0.5143405795097351,-0.31406262516975403,0.9464879631996155,-0.20695696771144867,0.36112403869628906,-0.48084673285484314,-1.6545144319534302,-0.04457217454910278,-0.06822318583726883,-0.28987982869148254,-0.9278575778007507,-0.583617627620697,-0.18411390483379364,-0.11945352703332901,-0.06939467787742615,0.8976344466209412,-0.2548448443412781,-0.893983781337738,0.37036362290382385,0.1865243762731552,-0.17698295414447784,0.8274505138397217,-0.3357425928115845,-0.7143427729606628,-0.024561474099755287,1.6379443407058716,0.011751890182495117,-0.3617892563343048,1.0165159702301025,0.5635137557983398,-0.6398069858551025,-0.15602122247219086,0.6626211404800415,0.4235302209854126,-0.23709605634212494,-0.31637340784072876,0.14533588290214539,-0.545775830745697,-0.5674594640731812,-0.6468917727470398,0.034657858312129974,0.287198543548584,0.5038382411003113,0.3291245400905609,-0.3520333766937256,-5.74113655090332,-1.2913501262664795,-0.7759779691696167,-0.1771525889635086,-0.42521432042121887,0.8303685784339905,0.2828010320663452,-0.16270683705806732,-0.5879892706871033,-0.6996297240257263,-0.9532502293586731,-1.6001389026641846,0.907425582408905,-0.637505292892456,-0.47857049107551575,-0.14520926773548126,0.1855977177619934,-0.2596251666545868,-0.03037017211318016,1.002317190170288,0.002153215231373906,-0.8008328080177307,1.236171841621399,-0.6273661255836487,1.4539827108383179,-0.4790060520172119,-0.29472705721855164,0.663144052028656,-0.4992873966693878,0.9092432260513306,-0.29172882437705994,-0.6675738096237183,-1.1215665340423584,-0.8007976412773132,-0.6015886068344116,-0.2654569149017334,0.5903841853141785,-0.10516445338726044,0.059920281171798706,0.5547958612442017,-0.7471720576286316,0.19326560199260712,-0.7530500888824463,0.4342639148235321,-0.18131960928440094,0.021535320207476616,-0.911227285861969,-0.7443000674247742,0.8322696089744568,-0.308270126581192,-0.7004292011260986,-0.6348469257354736,-0.448542982339859,-0.543516993522644,-0.8140730857849121,0.6681475043296814,-0.4347955882549286,-0.4484834671020508,-0.6227594614028931,0.17949174344539642,0.9464726448059082,-0.0987263098359108,-0.4898031949996948,-0.025459859520196915,-0.15220192074775696,-0.34422656893730164,0.33826306462287903,-0.053474061191082,0.41381996870040894,0.3288392424583435,-0.5435993671417236,-1.4238617420196533,-0.8655338287353516,-0.3364248275756836,0.8204768300056458,-0.5960312485694885,-0.6687449812889099,0.2230207622051239,-0.6231294870376587,0.6324567794799805,0.23297283053398132,-0.19242627918720245,0.155808225274086,1.5549825429916382,-0.5263128876686096,-0.3622124195098877,-0.22479306161403656,-0.7571917772293091,0.1694377213716507,0.04668349400162697,-0.03790104389190674,-1.0087947845458984,-0.4228556752204895,-0.2520570755004883,-0.08227818459272385,-0.6440482139587402,-0.23151935636997223,-0.24720345437526703,0.3439195156097412,0.18330548703670502,-1.2696077823638916,-0.7362180948257446,-0.804338276386261,1.0824187994003296,0.7860808372497559,-0.2645992040634155,0.5311588644981384,0.20072364807128906,-0.4441787004470825,-0.7778180837631226,-0.05487683042883873,0.24240651726722717,0.8352690935134888,-0.48736149072647095,-0.627156674861908,-1.00003981590271,-1.5235462188720703,0.8009839057922363,0.3026726245880127,-0.42034775018692017,0.7059926986694336,0.2572163939476013,-0.9436095952987671,0.5042716264724731,1.9515992403030396,-0.1957341581583023,-0.1531483381986618,-0.775060772895813,-0.1938258409500122,1.0057053565979004,-0.3601842522621155,-0.16676275432109833,-0.23433378338813782,-0.5975525975227356,-2.155773878097534,-0.4611058235168457,0.2432854026556015,-0.4650205075740814,-0.17182506620883942,0.040891073644161224,-0.1883925497531891,-0.7569808959960938,0.3190753161907196,-0.6374152898788452,0.6317049264907837,0.3745643198490143,-0.5989598631858826,-1.016136646270752,-2.328430652618408,2.6469016075134277,0.5459622144699097,-0.2673485577106476,-0.47133809328079224,0,0,0,0,0,0,0,0,0,0,0,0,0,0,0,0,0,0,0,0,0,0,0,0,0,0,0,0,0,0,0,0,0,0,0,0,0,0,0,0,0,0,0,0,0,0,0,0,0,0,0,0,0,0,0,0,0,0,0,0,0,0,0,0,0,0,0,0,0,0,0,0,0,0,0,0,0,0,0,0,0,0,0,0,0,0,0,0,0,0,0,0,0,0,0,0,0,0,0,0,0,0,0,0,0,0,0,0,0,0,0,0,0,0,0,0,0,0,0,0,0,0,0,0,0,0,0,0,0,0,0,0,0,0,0,0,0,0,0,0,0,0,0,0,0,0,0,0,0,0,0,0,0,0,0,0,0,0,0,0,0,0,0,0,0,0,0,0,0,0,0,0,0,0,0,0,0,0,0,0,0,0,0,0,0,0,0,0,0,0,0,0,0,0,0,0,0,0,0,0,0,0,0,0,0,0,0,0,0,0,0,0,0,0,0,0,0,0,0,0,0,0,0,0,0,0,0,0,0,0,0,0,0,0,0,0,0,0,0,0,0,0,0,0,0,0,0,0,0,0,0,0,0,0,0,0,0,0,0,0,0,0,0,0,0,0,0,0,0,0,0,0,0,0,0,0,0,0,0,0,0,0,0,0,0,0,0,0,0,0,0,0,0,0,0,0,0,0,0,0,0,0,0,0,0,0,0,0,0,0,0,0,0,0,0,0,0,0,0,0,0,0,0,0,0,0,0,0,0,0,0,0,0,0,0,0,0,0,0,0,0,0,0,0,0,0,0,0,0,0,0,0,0,0,0,0,0,0,0,0,0,0,0,0,0,0,0,0,0,0,0,0,0,0,0,0,0,0,0,0,0,0,0,0,0,0,0,0,0,0,0,0,0,0,0,0,0,0,0,0,0,0,0,0,0,0,0,0,0,0,0,0,0,0,0,0,0,0,0,0,0,0,0,0,0,0,0,0,0,0,0,0,0,0,0,0,0,0,0,0,0,0,0,0,0,0,0,0,0,0,0,0,0,0,0,0,0,0,0,0,0,0,0,0,0,0,0,0,0,0,0,0,0,0,0,0,0,0,0,0,0,0,0,0,0,0,0,0,0,0,0,0,0,0,0,0,0,0,0,0,0,0,0,0,0,0,0,0,0,0,0,0,0,0,0,0,0,0,0,0,0,0,0,0,0,0,0,0,0,0,0,0,0,0,0,0,0,0,0,0,0,0,0,0,0,0,0,0,0,0,0,0,0,0,0,0,0,0,0,0,0,0,0,0,0,0,0,0,0,0,0,0,0,0,0,0,0,0,0,0,0,0,0,0,0,0,0,0,0,0,0,0,0,0,0,0,0,0,0,0,0,0,0,0,0,0,0,0,0,0,0,0,0,0,0,0,0,0,0,0,0,0,0,0,0,0,0,0,0,0,0,0,0,0,0,0,0,0,0,0,0,0,0,0,0,0,0,0,0,0,0,0,0,0,0,0,0,0,0,0,0,0,0,0,0,0,0,0,0,0,0,0,0,0,0,0,0,0,0,0,0,0,0,0,0,0,0,0,0,0,0,0,0,0,0,0,0,0,0,0,0,0,0,0,0,0,0,0,0,0,0,0,0,0,0,0,0,0,0,0,0,0,0,0,0,0,0,0,0,0,0,0,0,0,0,0,0,0,0,0,0,0,0,0,0,0,0,0,0,0,0,0,0,0,0,0,0,0,0,0,0,0,0,0,0,0,0,0,0,0,0,0,0,0,0,0,0,0,0,0,0,0,0,0,0,0,0,0,0,0,0,0,0,0,0,0,0,0,0,0,0,0,0,0,0,0,0,0,0,0,0,0,0,0,0,0,0,0,0,0,0,0,0,0,0,0,0,0,0,0,0,0,0,0,0,0,0,0,0,0,0,0,0,0,0,0,0,0,0,0,0,0,0,0,0,0,0,0,0,0,0,0,0,0,0,0,0,0,0,0,0,0,0,0,0,0,0,0,0,0,0,0,0,0,0,0,0,0,0,0,0,0,0,0,0,0,0,0,0,0,0,0,0,0,0,0,0,0,0,0,0,0,0,0,0,0,0,0,0,0,0,0,0,0,0,0,0,0,0,0,0,0,0,0,0,0,0,0,0,0,0,0,0,0,0,0,0,0,0,0,0,0,0,0,0,0,0,0,0,0,0,0,0,0,0,0,0,0,0,0,0,0,0,0,0,0,0,0,0,0,0,0,0,0,0,0,0,0,0,0,0,0,0,0,0,0,0,0,0,0,0,0,0,0,0,0,0,0,0,0,0,0,0,0,0,0,0,0,0,0,0,0,0,0,0,0,0,0,0,0,0,0,0,0,0,0,0,0,0,0,0,0,0,0,0,0,0,0,0,0,0,0,0,0,0,0,0,0,0,0,0,0,0,0,0,0,0,0,0,0,0,0,0,0,0,0,0,0,0,0,0,0,0,0,0,0,0,0,0,0,0,0,0,0,0,0,0,0,0,0,0,0,0,0,0,0,0,0,0,0,0,0,0,0,0,0,0,0,0,0,0,0,0,0,0,0,0,0,0,0,0,0,0,0,0,0,0,0,0,0,0,0,0,0,0,0,0,0,0,0,0,0,0,0,0,0,0,0,0,0,0,0,0,0,0,0,0,0,0,0,0,0,0,0,0,0,0,0,0,0,0,0,0,0,0,0,0,0,0,0,0,0,0,0,0,0,0,0,0,0,0,0,0,0,0,0,0,0,0,0,0,0,0,0,0,0,0,0,0,0,0,0,0,0,0,0,0,0,0,0,0,0,0,0,0,0,0,0,0,0,0,0,0,0,0,0,0,0,0,0,0,0,0,0,0,0,0,0,0,0,0,0,0,0,0,0,0,0,0,0,0,0,0,0,0,0,0,0,0,0,0,0,0,0,0,0,0,0,0,0,0,0,0,0,0,0,0,0,0,0,0,0,0,0,0,0,0,0,0,0,0,0,0,0,0,0,0,0,0,0,0,0,0,0,0,0,0,0,0,0,0,0,0,0,0,0,0,0,0,0,0,0,0,0,0,0,0,0,0,0,0,0,0,0,0,0,0,0,0,0,0,0,0,0,0,0,0,0,0,0,0,0,0,0,0,0,0,0,0,0,0,0,0,0,0,0,0,0,0,0,0,0,0,0,0,0,0,0,0,0,0,0,0,0,0,0,0,0,0,0,0,0,0,0,0,0,0,0,0,0,0,0,0,0,0,0,0,0,0,0,0,0,0,0,0,0,0,0,0,0,0,0,0,0,0,0,0,0,0,0,0,0,0,0,0,0,0,0,0,0,0,0,0,0,0,0,0,0,0,0,0,0,0,0,0,0,0,0,0,0,0,0,0,0,0,0,0,0,0,0,0,0,0,0,0,0,0,0,0,0,0,0,0,0,0,0,0,0,0,0,0,0,0,0,0,0,0,0,0,0,0,0,0,0,0,0,0,0,0,0,0,0,0,0,0,0,0,0,0,0,0,0,0,0,0,0,0,0,0,0,0,0,0,0,0,0,0,0,0,0,0,0,0,0,0,0,0,0,0,0,0,0,0,0,0,0,0,0,0,0,0,0,0,0,0,0,0,0,0,0,0,0,0,0,0,0,0,0,0,0,0,0,0,0,0,0,0,0,0,0,0,0,0,0,0,0,0,0,0,0,0,0,0,0,0,0,0,0,0,0,0,0,0,0,0,0,0,0,0,0,0,0,0,0,0,0,0,0,0,0,0,0,0,0,0,0,0,0,0,0,0,0,0,0,0,0,0,0,0,0,0,0,0,0,0,0,0,0,0,0,0,0,0,0,0,0,0,0,0,0,0,0,0,0,0,0,0,0,0,0,0,0,0,0,0,0,0,0,0,0,0,0,0,0,0,0,0,0,0,0,0,0,0,0,0,0,0,0,0,0,0,0,0,0,0,0,0,0,0,0,0,0,0,0,0,0,0,0,0,0,0,0,0,0,0,0,0,0,0,0,0,0,0,0,0,0,0,0,0,0,0,0,0,0,0,0,0,0,0,0,0,0,0,0,0,0,0,0,0,0,0,0,0,0,0,0,0,0,0,0,0,0,0,0,0,0,0,0,0,0,0,0,0,0,0,0,0,0,0,0,0,0,0,0,0,0,0,0,0,0,0,0,0,0,0,0,0,0,0,0,0,0,0,0,0,0,0,0,0,0,0,0,0,0,0,0,0,0,0,0,0,0,0,0,0,0,0,0,0,0,0,0,0,0,0,0,0,0,0,0,0,0,0,0,0,0,0,0,0,0,0,0,0,0,0,0,0,0,0,0,0,0,0,0,0,0,0,0,0,0,0,0,0,0,0,0,0,0,0,0,0,0,0,0,0,0,0,0,0,0,0,0,0,0,0,0,0,0,0,0,0,0,0,0,0,0,0,0,0,0,0,0,0,0,0,0,0,0,0,0,0,0,0,0,0,0,0,0,0,0,0,0,0,0,0,0,0,0,0,0,0,0,0,0,0,0,0,0,0,0,0,0,0,0,0,0,0,0,0,0,0,0,0,0,0,0,0,0,0,0,0,0,0,0,0,0,0,0,0,0,0,0,0,0,0,0,0,0,0,0,0,0,0,0,0,0,0,0,0,0,0,0,0,0,0,0,0,0,0,0,0,0,0,0,0,0,0,0,0,0,0,0,0,0,0,0,0,0,0,0,0,0,0,0,0,0,0,0,0,0,0,0,0,0,0,0,0,0,0,0,0,0,0,0,0,0,0,0,0,0,0,0,0,0,0,0,0,0,0,0,0,0,0,0,0,0,0,0,0,0,0,0,0,0,0,0,0,0,0,0,0,0,0,0,0,0,0,0,0,0,0,0,0,0,0,0,0,0,0,0,0,0,0,0,0,0,0,0,0,0,0,0,0,0,0,0,0,0,0,0,0,0,0,0,0,0,0,0,0,0,0,0,0,0,0,0,0,0,0,0,0,0,0,0,0,0,0,0,0,0,0,0,0,0,0,0,0,0,0,0,0,0,0,0,0,0,0,0,0,0,0,0,0,0,0,0,0,0,0,0,0,0,0,0,0,0,0,0,0,0,0,0,0,0,0,0,0,0,0,0,0,0,0,0,0,0,0,0,0,0,0,0,0,0,0,0,0,0,0,0,0,0,0,0,0,0,0,0,0,0,0,0,0,0,0,0,0,0,0,0,0,0,0,0,0,0,0,0,0,0,0,0,0,0,0,0,0,0,0,0,0,0,0,0,0,0,0,0,0,0,0,0,0,0,0,0,0,0,0,0,0,0,0,0,0,0,0,0,0,0,0,0,0,0,0,0,0,0,0,0,0,0,0,0,0,0,0,0,0,0,0,0,0,0,0,0,0,0,0,0,0,0,0,0,0,0,0,0,0,0,0,0,0,0,0,0,0,0,0,0,0,0,0,0,0,0,0,0,0,0,0,0,0,0,0,0,0,0,0,0,0,0,0,0,0,0,0,0,0,0,0,0,0,0,0,0,0,0,0,0,0,0,0,0,0,0,0,0,0,0,0,0,0,0,0,0,0,0,0,0,0,0,0,0,0,0,0,0,0,0,0,0,0,0,0,0,0,0,0,0,0,0,0,0,0,0,0,0,0,0,0,0,0,0,0,0,0,0,0,0,0,0,0,0,0,0,0,0,0,0,0,0,0,0,0,0,0,0,0,0,0,0,0,0,0,0,0,0,0,0,0,0,0,0,0,0,0,0,0,0,0,0,0,0,0,0,0,0,0,0,0,0,0,0,0,0,0,0,0,0,0,0,0,0,0,0,0,0,0,0,0,0,0,0,0,0,0,0,0,0,0,0,0,0,0,0,0,0,0,0,0,0,0,0,0,0,0,0,0,0,0,0,0,0,0,0,0,0,0,0,0,0,0,0,0,0,0,0,0,0,0,0,0,0,0,0,0,0,0,0,0,0,0,0,0,0,0,0,0,0,0,0,0,0,0,0,0,0,0,0,-0.6111749410629272,-0.4431774616241455,0.2564011514186859,-0.17343682050704956,0.21837513148784637,-0.30937862396240234,0.22645536065101624,-0.22071465849876404,0.22294126451015472,0.057540059089660645,-0.4339742660522461,-0.1599327176809311,0.6593104600906372,0.22268739342689514,0.19205455482006073,-0.37986138463020325,0.04894699156284332,-0.17790518701076508,0.08461295813322067,0.3198689818382263,0.1491803526878357,-0.16491664946079254,0.21457572281360626,-0.07376110553741455,0.042162586003541946,0.08817698061466217,0.38506048917770386,0.09377755224704742,-0.38434407114982605,-0.31064167618751526,0.3075045049190521,-0.5260080695152283,-0.3201344609260559,0.3877485990524292,0.10895698517560959,-0.07417293637990952,-0.24128161370754242,-0.46884676814079285,-0.2203594595193863,-0.2930418848991394,-0.010197962634265423,-0.24440622329711914,-0.25394371151924133,-2.528890609741211,1.0269495248794556,0.406676709651947,0.28025707602500916,0.15639421343803406,0.01776881329715252,-0.24556894600391388,0.02264396660029888,-0.1965852975845337,0.3526442050933838,0.39906802773475647,-0.22314798831939697,-0.5785717964172363,-0.17932379245758057,-0.03815529868006706,-0.35138624906539917,-0.000545709568541497,-0.18524983525276184,0.0016095427563413978,-0.9355162978172302,-0.349208265542984,0.10989576578140259,-0.04344033822417259,-0.3731439411640167,-0.26840582489967346,-0.07750409096479416,-0.18602414429187775,-0.12123191356658936,-0.2850455045700073,-0.36062076687812805,0.8779107332229614,-0.0779072567820549,-0.030865682289004326,0.0362355075776577,0.020579345524311066,0.24805298447608948,-0.28183072805404663,0.1623327136039734,0.39087262749671936,-0.37654197216033936,0.11880697309970856,-0.15848806500434875,0.4868370294570923,-0.17528893053531647,-0.2541288137435913,0.144292950630188,-0.2723848819732666,0.5347418785095215,0.06585212796926498,-0.26446378231048584,-0.45935308933258057,-0.37623220682144165,-0.24738289415836334,-0.30959710478782654,-0.6162036061286926,0.031178569421172142,0.3455858528614044,0.276345431804657,0.5895019173622131,-0.09325000643730164,-0.5982329249382019,0.14169061183929443,0.026696601882576942,-0.3053407669067383,0.3750026822090149,-0.26335257291793823,-0.05322779715061188,0.2747753858566284,0.07774533331394196,0.10486041754484177,-0.34984564781188965,0.18397049605846405,0.3089575171470642,0.667361319065094,0.17372219264507294,0.23633715510368347,0.20800527930259705,0.04453622177243233,1.5410751104354858,0.3810714781284332,0.5090652108192444,-0.2873802185058594,1.619468331336975,-0.43935197591781616,-0.275909960269928,0.04197635129094124,-0.3164259195327759,0.029066188260912895,-1.2303136587142944,-0.3133736252784729,-0.26058194041252136,3.301520586013794,-0.35845187306404114,0.30238771438598633,-0.3405742645263672,0.16957810521125793,-0.14026981592178345,-0.4621511995792389,1.170045256614685,0.11005356907844543,-0.8893528580665588,-0.33383041620254517,0.5593751072883606,-0.13392376899719238,-0.5262681841850281,0.055800650268793106,0.06734964996576309,0.04171458259224892,-0.16994039714336395,0.16255168616771698,-0.29179760813713074,-0.4188007414340973,0.3007024824619293,0.17822295427322388,0.11828365176916122,0.19836491346359253,-0.048666514456272125,0.17348697781562805,0.2623308598995209,-0.4506489336490631,-0.09949871152639389,-0.2440737783908844,-0.4869714379310608,0.012836550362408161,0.2568933963775635,-0.5263963341712952,0.03113800473511219,0.31613674759864807,0.7198731303215027,-0.25756779313087463,0.03812739998102188,-0.2496534287929535,0.014630841091275215,-5.114840030670166,-0.05594310164451599,0.45241373777389526,-0.006353587843477726,0.19082890450954437,0.4965225160121918,-0.26138296723365784,-0.23080696165561676,0.18172049522399902,-0.02469206601381302,0.0529196634888649,0.23724272847175598,-0.18377749621868134,-0.14373448491096497,-0.3912772834300995,-0.16198229789733887,0.2186940610408783,-0.5315099358558655,0.7304580807685852,0.16893967986106873,-0.028317084535956383,0.6264671087265015,0.7815253734588623,0.12523363530635834,-0.8560910224914551,0.5985703468322754,-0.29988545179367065,0.1426781713962555,-0.31932932138442993,0.3832777440547943,0.23002849519252777,0.09663212299346924,-0.2413303703069687,0.011346912942826748,0.5724911093711853,0.30960431694984436,-0.8761917948722839,0.23080390691757202,0.029783356934785843,-0.2193489819765091,0.876839280128479,0.3659532070159912,0.15102942287921906,-0.5911279916763306,-0.02027050405740738,0.6260751485824585,-0.23269310593605042,0.3644082546234131,0.11564624309539795,-0.5726340413093567,-0.006807368248701096,0.022947413846850395,0.11067184060811996,0.09775135666131973,0.24926888942718506,-0.22282636165618896,0.3737295866012573,-0.29682543873786926,-0.10270325839519501,0.4045763611793518,-0.376574844121933,-0.30190619826316833,0.1097833439707756,-0.3455829322338104,0.35774943232536316,-0.43558061122894287,-0.3792279064655304,0.812148928642273,0.2110878974199295,-0.12907151877880096,-0.15551036596298218,0.13578270375728607,-0.28896066546440125,-0.1838512122631073,0.21610744297504425,0.19300399720668793,0.859604001045227,0.33621546626091003,0.8073974847793579,-0.21558094024658203,0.1353417932987213,0.00020364283409435302,-0.10889441519975662,-0.21069903671741486,0.02148684486746788,-0.9132297039031982,0.9542497992515564,-0.23024150729179382,0.07787264883518219,-0.23541773855686188,0.17240595817565918,0.4287572205066681,0.02393866516649723,-0.3970191478729248,0.4860951006412506,-0.35073164105415344,0.3360983431339264,0.058331940323114395,-0.46921926736831665,-0.9226801991462708,0.24571163952350616,-0.03842979297041893,-0.38853317499160767,-0.06598897278308868,-0.5754666924476624,0.14164912700653076,0.7395529747009277,-0.3259599506855011,0.7699143886566162,-0.1516573131084442,-0.6999657154083252,0.36696162819862366,0.0979151576757431,0.2863137722015381,-0.16165857017040253,-0.15449145436286926,-0.07789354026317596,-0.4600876271724701,-0.23981261253356934,-0.8011159300804138,0.0317559577524662,0.9387803673744202,-0.11601051688194275,0.24588488042354584,0.539181649684906,0.25050681829452515,-0.40145379304885864,0.8651663661003113,-0.6360278725624084,-0.018181554973125458,-1.2942286729812622,-0.3495447039604187,0.09101030230522156,-0.31393808126449585,-0.0356396809220314,0.0628819540143013,1.4198535680770874,-0.14366713166236877,-0.5159808993339539,0.1576652079820633,0.202229306101799,1.6726690530776978,0.06170912832021713,0.1748126596212387,0.6257981061935425,-0.45548728108406067,-0.08435214310884476,-0.037174347788095474,-5.295529842376709,0.2111608386039734,0.19975237548351288,0.22000999748706818,-0.1683225929737091,-0.3783738911151886,-0.4484714865684509,0.05252762511372566,-0.10715869814157486,-0.3037937879562378,-0.29758167266845703,-0.4566970467567444,-0.12649551033973694,0.37544554471969604,0.17410516738891602,-0.15961582958698273,-0.39478328824043274,0.20389077067375183,-0.40964847803115845,-0.26118800044059753,-0.041049618273973465,-0.13282081484794617,-0.014011499471962452,0.20729750394821167,0.13737744092941284,-0.34528499841690063,-0.13079777359962463,-0.3661205470561981,-0.5865037441253662,0.6621897220611572,0.3512188196182251,-0.019933626055717468,1.9805362224578857,-0.39752426743507385,-0.015105185098946095,-0.09998088330030441,1.1390258073806763,0.4861365556716919,0.18015198409557343,-0.49582481384277344,-0.37193742394447327,0.27852386236190796,-0.29991841316223145,-0.18223091959953308,-0.48569557070732117,0.04605851322412491,0.15428726375102997,0.056412700563669205,0.5239949822425842,-0.058734212070703506,-0.578494668006897,-4.932878017425537,0.29726746678352356,0.2509864270687103,-0.5554814338684082,-0.12477646768093109,-0.14875580370426178,0.12148963660001755,0.24433526396751404,-0.41024431586265564,-0.3557656407356262,0.15608647465705872,-0.0015465047908946872,-0.5245339870452881,-0.4855293929576874,0.022778522223234177,-0.04576442390680313,0.04425877332687378,-0.3413192927837372,0.23296567797660828,-0.3381083905696869,-0.21762128174304962,-0.3086039423942566,0.9717317819595337,0.4174177348613739,-0.004368285182863474,-0.22465954720973969,0.04149017482995987,1.025368571281433,-0.19260388612747192,-0.06526664644479752,-0.4699508547782898,1.0423306226730347,0.1328420341014862,0.1512707769870758,0.5130141377449036,-0.37125781178474426,-0.3842260241508484,0.2412666380405426,-0.8198109865188599,-0.20390598475933075,-0.2746700346469879,-0.4727283716201782,0.03475672006607056,-0.6449022889137268,-0.3180188238620758,-0.2553759515285492,0.12787918746471405,0.5761985778808594,-0.08179584890604019,0.3081533908843994,0.17379716038703918,-0.3388125002384186,-0.0037367534823715687,-0.35326170921325684,0.5816415548324585,-0.18350210785865784,0.19868984818458557,0.4701578617095947,-0.2930469810962677,0.1667226105928421,-0.12471572309732437,-0.16789066791534424,-0.20758654177188873,-0.30042293667793274,0.19139155745506287,-0.11016521602869034,-0.11192361265420914,0.5323987603187561,-0.021007588133215904,0.7541255354881287,1.5263242721557617,-0.7093368172645569,0.018618840724229813,-0.9892895221710205,-0.5081366300582886,-0.7736192345619202,1.4371281862258911,0.009072283282876015,-0.18663735687732697,-0.26039981842041016,0.0149114690721035,-0.2119179219007492,-0.03462265804409981,0.3327062129974365,0.36541882157325745,0.2691021263599396,-0.10606268048286438,-0.09285615384578705,0.20209436118602753,0.09598003327846527,-0.28955313563346863,0.6262567043304443,-1.482010006904602,-0.4267825484275818,0.2826172411441803,0.39961183071136475,0.1920526772737503,-0.25164932012557983,-0.3546476662158966,0.3075133264064789,0.6910500526428223,0.412018358707428,0.3887016177177429,-0.1541168987751007,0.08798021078109741,-0.1026320606470108,-0.0010181458201259375,0.06055779755115509,-0.0464344248175621,0.18366451561450958,0.30795523524284363,-0.13993456959724426,0.0033899054396897554,0.18649160861968994,-0.29488086700439453,-0.11146603524684906,0.022081337869167328,-0.35480058193206787,0.22928805649280548,-0.45871463418006897,-0.2187223881483078,-0.48212504386901855,-0.2543747127056122,-0.30585673451423645,2.002453327178955,-0.18590934574604034,-0.11502140760421753,0.08507278561592102,0.10848139226436615,-0.07267124205827713,0.32409965991973877,-0.1830388903617859,-0.303850382566452,0.7498310804367065,0.3594556748867035,-0.18712106347084045,0.1523015797138214,0.08930177986621857,0.3823056221008301,0.6288697123527527,0.4158412516117096,0.2660205364227295,0.9288201332092285,-0.2165515422821045,0.018120769411325455,0.061113834381103516,-0.16118843853473663,0.16666479408740997,0.27913880348205566,-0.17372041940689087,-0.011349446140229702,-0.46951302886009216,-0.42958998680114746,0,0,0,0,0,0,0,0,0,0,0,0,0,0,0,0,0,0,0,0,0,0,0,0,0,0,0,0,0,0,0,0,0,0,0,0,0,0,0,0,0,0,0,0,0,0,0,0,0,0,0,0,0,0,0,0,0,0,0,0,0,0,0,0,0,0,0,0,0,0,0,0,0,0,0,0,0,0,0,0,0,0,0,0,0,0,0,0,0,0,0,0,0,0,0,0,0,0,0,0,0,0,0,0,0,0,0,0,0,0,0,0,0,0,0,0,0,0,0,0,0,0,0,0,0,0,0,0,0,0,0,0,0,0,0,0,0,0,0,0,0,0,0,0,0,0,0,0,0,0,0,0,0,0,0,0,0,0,0,0,0,0,0,0,0,0,0,0,0,0,0,0,0,0,0,0,0,0,0,0,0,0,0,0,0,0,0,0,0,0,0,0,0,0,0,0,0,0,0,0,0,0,0,0,0,0,0,0,0,0,0,0,0,0,0,0,0,0,0,0,0,0,0,0,0,0,0,0,0,0,0,0,0,0,0,0,0,0,0,0,0,0,0,0,0,0,0,0,0,0,0,0,0,0,0,0,0,0,0,0,0,0,0,0,0,0,0,0,0,0,0,0,0,0,0,0,0,0,0,0,0,0,0,0,0,0,0,0,0,0,0,0,0,0,0,0,0,0,0,0,0,0,0,0,0,0,0,0,0,0,0,0,0,0,0,0,0,0,0,0,0,0,0,0,0,0,0,0,0,0,0,0,0,0,0,0,0,0,0,0,0,0,0,0,0,0,0,0,0,0,0,0,0,0,0,0,0,0,0,0,0,0,0,0,0,0,0,0,0,0,0,0,0,0,0,0,0,0,0,0,0,0,0,0,0,0,0,0,0,0,0,0,0,0,0,0,0,0,0,0,0,0,0,0,0,0,0,0,0,0,0,0,0,0,0,0,0,0,0,0,0,0,0,0,0,0,0,0,0,0,0,0,0,0,0,0,0,0,0,0,0,0,0,0,0,0,0,0,0,0,0,0,0,0,0,0,0,0,0,0,0,0,0,0,0,0,0,0,0,0,0,0,0,0,0,0,0,0,0,0,0,0,0,0,0,0,0,0,0,0,0,0,0,0,0,0,0,0,0,0,0,0,0,0,0,0,0,0,0,0,0,0,0,0,0,0,0,0,0,0,0,0,0,0,0,0,0,0,-0.2559818923473358,-0.4432516396045685,-0.20124484598636627,-0.6409415006637573,1.0646802186965942,-0.631281852722168,-0.4497397840023041,-0.05434542894363403,-0.009611561894416809,0.20950855314731598,-0.4697767496109009,-0.5045060515403748,-0.5907449126243591,-0.13021832704544067,-0.6649864315986633,-0.8158591985702515,-0.40133827924728394,-0.5243158936500549,-0.3026439845561981,-0.20710644125938416,0.32836905121803284,-1.09029221534729,0.4170176684856415,-0.919845461845398,0.6308242082595825,-0.7533068060874939,0.7623148560523987,-0.2969386577606201,0.18182197213172913,-0.7724090814590454,2.1456499099731445,-0.415668785572052,-0.7743764519691467,1.0373820066452026,0.3039150834083557,0.29679498076438904,-0.8124950528144836,-0.19893240928649902,-0.5683098435401917,-0.16643458604812622,-0.9712030291557312,-0.03811963275074959,0.6246647238731384,0.8358151912689209,-0.3704799711704254,-1.044370174407959,1.038590431213379,-0.35432329773902893,0.3404461145401001,-0.7081280946731567,-0.32537591457366943,-0.7834093570709229,-0.47594475746154785,0.2676059901714325,-0.5434707999229431,-0.5021901726722717,-0.9878345727920532,-1.0667744874954224,-0.2729130983352661,0.24225863814353943,-1.0612932443618774,0.24808736145496368,-0.40727055072784424,0.5732581615447998,-0.6125748753547668,-0.5537095069885254,-0.7293147444725037,-0.342082679271698,0.7049616575241089,-0.3506050407886505,-0.129421204328537,-0.6055796146392822,-0.11798923462629318,0.058192431926727295,-0.6267739534378052,-1.425079584121704,1.2970635890960693,0.7172244787216187,-0.07445891946554184,-0.4484052062034607,0.9608162045478821,0.33162033557891846,-0.4413365125656128,0.1992766112089157,0.31523817777633667,0.18130242824554443,-0.08452644944190979,-0.5486911535263062,-0.828376829624176,-0.6478104591369629,0.00717471819370985,-0.4241144061088562,-0.488973468542099,0.5711286664009094,-0.19912301003932953,-0.3261927366256714,0.15246348083019257,-0.3571377694606781,-0.6682238578796387,-0.14528794586658478,-0.3511868119239807,1.19983971118927,-0.7035547494888306,0.6392066478729248,0.35140642523765564,0.13268813490867615,-0.4017607569694519,-1.1499749422073364,-0.31858640909194946,0.06817615032196045,-0.6133310794830322,-0.1762375831604004,0.23490308225154877,-0.6725947260856628,0.2800898253917694,0.8247820734977722,-0.7916775941848755,-0.13407361507415771,0.5515777468681335,-0.3738190829753876,0.15258164703845978,-1.0257949829101562,0.6029847860336304,0.7008795738220215,-0.3029712438583374,-0.10237716138362885,-0.11611383408308029,-0.6086642742156982,-0.553827702999115,-0.1635948270559311,0.4990162253379822,1.3421406745910645,-0.6500237584114075,-0.7259234189987183,-0.25905364751815796,-0.37595000863075256,0.181844100356102,-1.396852970123291,0.35451385378837585,-0.80694180727005,-0.22343459725379944,-0.4533986747264862,-0.19164012372493744,-0.03257078677415848,-0.8802797198295593,0.004114262759685516,-0.08012053370475769,-1.0868096351623535,0.08058024942874908,-0.6158724427223206,0.28738483786582947,-0.5926120281219482,-0.664896547794342,-0.7472797632217407,0.7935289740562439,-1.3288630247116089,0.8824567794799805,-0.4287475347518921,0.5776397585868835,0.3963027000427246,0.0877779945731163,0.029347725212574005,-0.3578152358531952,-0.43628326058387756,-0.9436063170433044,-0.6727869510650635,-0.8026317954063416,-0.08558933436870575,-0.4855020046234131,-0.6022429466247559,0.08883704990148544,0.3609766662120819,-0.5504750609397888,0.08951464295387268,-0.8072770237922668,-0.1792818307876587,-0.5112038850784302,0.5113251209259033,0.2602393925189972,-0.7741402983665466,0.18876399099826813,1.082007646560669,-0.5324435234069824,-0.7168317437171936,0.12279257923364639,-0.7029193043708801,0.2095601111650467,1.0216805934906006,-0.5398304462432861,0.751205563545227,-0.5764442682266235,0.7803662419319153,0.18728852272033691,-0.35726675391197205,0.6479907631874084,0.7879251837730408,0.2604375183582306,2.8655788898468018,0.6405326128005981,0.29605937004089355,-0.32977092266082764,1.6328951120376587,-0.35934799909591675,3.2906277179718018,1.2424429655075073,0.5498318076133728,0.9021501541137695,0.5445547103881836,-0.41086459159851074,-0.7896226048469543,0.377767950296402,-0.20811572670936584,-0.5500860810279846,-0.11953752487897873,-1.0370475053787231,0.2927078902721405,-0.09899497032165527,0.5978352427482605,-0.19033485651016235,-1.2880089282989502,-0.5806229114532471,-0.515930712223053,-0.5791045427322388,1.2945585250854492,0.3618011772632599,-0.3874637484550476,-0.5333236455917358,0.40426069498062134,-0.7261996865272522,-0.5527775883674622,-0.9044910073280334,0.31696879863739014,-0.6952597498893738,-0.4593873918056488,0.3136198818683624,-0.010224977508187294,-0.6433318853378296,-0.01702725887298584,-0.3458045423030853,-0.3232611417770386,-0.35538050532341003,-0.674207866191864,-0.5090181827545166,1.8717745542526245,-1.1329346895217896,0.6247124671936035,-0.7547189593315125,0.6512272953987122,-0.3379270136356354,-0.4726422429084778,-0.11412660777568817,0.7895815968513489,1.7322494983673096,-0.23342475295066833,0.18168149888515472,1.304762363433838,0.8602039217948914,0.346268892288208,-1.0838364362716675,-0.9810158014297485,0.37928804755210876,-0.4712083637714386,-0.29180479049682617,0.22511230409145355,-0.1899050772190094,-0.020440148189663887,-0.4960230588912964,-1.3966968059539795,0.17702431976795197,-0.7076483368873596,0.9345946907997131,-0.4302116930484772,-0.0021850615739822388,0.2524769902229309,-0.24613481760025024,-0.5001496076583862,0.016584713011980057,-0.3675052225589752,0.19088691473007202,-0.7995316982269287,-0.13193932175636292,-0.9293621778488159,1.0237842798233032,-0.41963037848472595,0.10358928889036179,-0.2482595592737198,-1.2771482467651367,-0.062073059380054474,0.15941843390464783,0.31141436100006104,0.18997910618782043,-0.08025624603033066,0.14934611320495605,-0.2781904935836792,0.4398314356803894,-0.4342709183692932,-0.30589690804481506,1.6411100625991821,-0.9901357889175415,0.786230742931366,0.5953100919723511,-0.0555587001144886,0.5782487988471985,0.33756303787231445,-0.45898935198783875,0.8737796545028687,0.09645306318998337,-0.5223481059074402,-0.6062418818473816,-1.1133720874786377,-0.30675655603408813,0.9629294276237488,0.33162009716033936,-0.09773057699203491,-1.95004403591156,0.541614830493927,0.20212548971176147,0.23665647208690643,-0.7933382987976074,0.7331346273422241,-0.9071576595306396,-0.879375696182251,0.0801001638174057,-0.676803708076477,-0.484621524810791,-0.17083092033863068,-0.06253568083047867,0.28661105036735535,-1.6353942155838013,-0.48688891530036926,-0.42352423071861267,-0.27537670731544495,-0.11006434261798859,-0.15248262882232666,0.4320147633552551,-0.5297025442123413,0.3064221441745758,1.002718210220337,-0.17824548482894897,-0.35048747062683105,-0.3321893811225891,-0.3969712257385254,-0.19713765382766724,-0.874412477016449,-0.9564071893692017,-0.13280069828033447,-0.6972700357437134,-0.07847939431667328,0.28486138582229614,0.14326506853103638,-0.80809086561203,-0.6305999755859375,-0.3819732964038849,0.4920395016670227,0.6760468482971191,-0.4443984627723694,0.3034229278564453,-0.3290668725967407,-0.470525860786438,0.5354161262512207,0.4153318703174591,-0.7869123220443726,0.20223787426948547,0.3702686131000519,-0.1868387907743454,2.0326485633850098,-0.20527468621730804,-0.5169506072998047,-0.48339900374412537,-0.533134400844574,0.22097446024417877,0.5592538714408875,0.3118698298931122,0.19777525961399078,-0.4479389190673828,-6.31400728225708,-1.152012825012207,-0.19840013980865479,-0.09265735745429993,-0.6370553374290466,-0.1624537706375122,0.29592540860176086,1.286887288093567,-0.6675708889961243,-0.6517713069915771,-0.4568546712398529,-0.006904232781380415,-0.40819719433784485,-0.5585598945617676,-0.5744398236274719,-0.9671393632888794,-1.1725108623504639,-0.14381034672260284,0.9670982956886292,-0.795227587223053,-0.5989484786987305,-0.5539283752441406,1.1934199333190918,0.6697888374328613,0.053318340331315994,-0.4202883541584015,-0.33292141556739807,-0.04388904944062233,-0.39921092987060547,-0.06774178892374039,-0.28805550932884216,0.33370497822761536,-0.05615836754441261,-0.13301560282707214,0.12028603255748749,0.06627627462148666,-0.5951915383338928,0.8234959244728088,-0.2297830432653427,0.4092353880405426,0.36675524711608887,0.6358356475830078,0.5883716344833374,-0.00871930830180645,-0.25950759649276733,-0.735401451587677,-0.7803246378898621,0.6095600724220276,-0.15358507633209229,1.1256310939788818,-0.8004048466682434,0.8185136914253235,-0.08621221780776978,2.444509267807007,1.7499884366989136,0.09022635221481323,-0.6211541891098022,1.5285530090332031,-0.3831159770488739,0.037933651357889175,-0.13730236887931824,-0.9565563797950745,-0.3621406853199005,-0.6302168369293213,-0.5252087116241455,-0.6923995614051819,-1.0846672058105469,-0.33338093757629395,0.27188408374786377,0.31652289628982544,0.14274263381958008,0.2763853371143341,-0.4820786714553833,-0.4374145269393921,-0.7699190974235535,-0.7551312446594238,0.21371586620807648,0.246948704123497,-0.5003164410591125,-0.8677754998207092,-0.6578273177146912,-0.6305885314941406,0.3444717228412628,0.001823883387260139,-1.0370162725448608,0.7877577543258667,-0.600451648235321,0.009438025765120983,0.510525107383728,0.678721010684967,-0.6935868263244629,2.1305031776428223,-0.5364957451820374,-0.30428048968315125,0.8710019588470459,-0.07720396667718887,1.2723808288574219,-0.37520384788513184,-0.6707913875579834,0.31281575560569763,1.862470030784607,-0.32964739203453064,-0.18201950192451477,-0.10401640832424164,0.2348349392414093,-0.9516610503196716,-0.52690190076828,0.09716425091028214,-0.059564944356679916,-0.12735304236412048,0.6878712773323059,-0.2542495131492615,-0.23243165016174316,0.04712621495127678,-0.5867063403129578,0.5985297560691833,0.003813617629930377,-0.8683953285217285,0.06143863871693611,-0.4199385344982147,-0.6052044630050659,-0.4268597364425659,-0.5689647197723389,-0.40903240442276,1.4653695821762085,-0.9935644865036011,-0.8449314832687378,-0.251140296459198,0.8970142006874084,-0.4276142716407776,1.3067641258239746,-0.3011174201965332,-0.3062930405139923,0.21483303606510162,0.09086661785840988,-0.4581313729286194,-0.37349310517311096,-0.10082665830850601,0.6356855630874634,0.01885559968650341,1.1972181797027588,0.05388418212532997,-0.05961475148797035,-0.35859498381614685,0.39876899123191833,0.38534533977508545,-0.4102320969104767,-0.09951860457658768,-2.4139790534973145,